{"learner":{"attributes":{"scikit_learn":"{\"_estimator_type\": \"regressor\"}"},"feature_names":[],"feature_types":[],"gradient_booster":{"model":{"gbtree_model_param":{"num_parallel_tree":"1","num_trees":"100"},"iteration_indptr":[0,1,2,3,4,5,6,7,8,9,10,11,12,13,14,15,16,17,18,19,20,21,22,23,24,25,26,27,28,29,30,31,32,33,34,35,36,37,38,39,40,41,42,43,44,45,46,47,48,49,50,51,52,53,54,55,56,57,58,59,60,61,62,63,64,65,66,67,68,69,70,71,72,73,74,75,76,77,78,79,80,81,82,83,84,85,86,87,88,89,90,91,92,93,94,95,96,97,98,99,100],"tree_info":[0,0,0,0,0,0,0,0,0,0,0,0,0,0,0,0,0,0,0,0,0,0,0,0,0,0,0,0,0,0,0,0,0,0,0,0,0,0,0,0,0,0,0,0,0,0,0,0,0,0,0,0,0,0,0,0,0,0,0,0,0,0,0,0,0,0,0,0,0,0,0,0,0,0,0,0,0,0,0,0,0,0,0,0,0,0,0,0,0,0,0,0,0,0,0,0,0,0,0,0],"trees":[{"base_weights":[-7.069216E-3,-2.307003E4,1.2357507E5,-4.049283E4,2.6711484E4,9.325922E4,2.0421706E5,-5.5914285E4,-1.541083E4,1.3262052E4,6.623188E4,6.781288E4,1.3194345E5,1.433627E5,2.4706578E5,-6.682356E4,-3.385761E4,-3.9711723E4,-5.3539683E3,4.515602E3,5.43878E4,5.577363E4,1.02323336E5,4.7615316E4,1.0025459E5,9.727821E4,1.6366086E5,8.71182E3,1.4652136E5,-5.6974688E3,2.625574E5,-8.592887E4,-5.9132438E4,-3.863903E4,-1.7222494E4,-5.393579E4,-2.1918965E4,3.9819318E2,-4.157046E4,-2.5104803E4,1.1435724E4,4.3390742E4,8.988916E4,2.9310154E4,6.863145E4,1.7590234E4,1.2082345E5,2.893817E4,7.044691E4,2.2054238E4,1.0856166E5,-8.838181E3,1.0201153E5,2.4678912E4,1.720515E5,1.7978959E4,4.5315445E4,5.743196E2,-3.1381807E3,5.239149E4,3.044808E5,-2.69108E4,-1.7728465E4,-2.000633E4,-1.3885937E4,-1.341519E4,-8.593752E3,-1.1708725E4,-3.1499907E3,-4.640746E3,-1.6746383E4,-8.682322E3,4.7794346E3,-2.2120452E3,5.3026597E3,-1.4141188E4,3.5895295E3,-1.0693046E4,-4.746045E3,1.7702086E3,8.992701E3,1.3618196E3,1.332915E4,3.031478E4,1.016576E4,1.9442174E3,1.3911821E4,4.71576E3,2.1248742E4,3.9563344E4,1.421576E4,1.8351265E3,1.1061027E4,2.2252305E4,-5.0881807E3,8.761359E3,2.2657595E3,4.223599E4,2.7597602E4,1.5620263E4,3.335453E4,5.268345E4,1.085577E4,9.8077664E4,5.0181793E4],"categories":[],"categories_nodes":[],"categories_segments":[],"categories_sizes":[],"default_left":[0,0,0,0,0,0,0,0,0,0,0,0,0,0,0,0,0,0,0,0,0,0,0,0,0,0,0,0,0,0,0,0,0,0,0,0,0,0,0,0,0,0,0,0,0,0,0,0,0,0,0,0,0,0,0,0,0,0,0,0,0,0,0,0,0,0,0,0,0,0,0,0,0,0,0,0,0,0,0,0,0,0,0,0,0,0,0,0,0,0,0,0,0,0,0,0,0,0,0,0,0,0,0,0,0],"id":0,"left_children":[1,3,5,7,9,11,13,15,17,19,21,23,25,27,29,31,33,35,37,39,41,43,45,47,49,51,53,-1,55,57,59,61,63,65,67,69,71,73,75,77,79,81,83,85,87,-1,89,91,93,95,97,-1,99,-1,101,-1,-1,-1,-1,-1,103,-1,-1,-1,-1,-1,-1,-1,-1,-1,-1,-1,-1,-1,-1,-1,-1,-1,-1,-1,-1,-1,-1,-1,-1,-1,-1,-1,-1,-1,-1,-1,-1,-1,-1,-1,-1,-1,-1,-1,-1,-1,-1,-1,-1],"loss_changes":[4.1679863E12,1.0696361E12,5.4324285E11,3.5228772E11,1.6921025E11,1.5741144E11,1.2624698E11,1.33689246E11,8.507975E10,8.608344E10,2.4866783E10,6.3371674E10,5.664591E10,5.856166E9,1.3854599E11,5.0315657E10,1.4367506E10,2.463246E10,5.1680686E10,4.1077477E10,1.249688E10,2.0105478E10,6.655967E9,2.6105709E10,2.2940746E10,2.3401726E10,8.384807E9,0E0,1.5387853E9,1.2879476E8,6.845969E10,5.433262E9,2.33124E10,7.58725E9,6.0403917E9,3.1981076E9,1.295319E10,2.8999217E10,1.0696798E10,3.1543398E9,1.6447416E10,1.1717796E9,2.200871E9,8.658639E9,3.8868746E9,0E0,2.6807337E9,6.6530345E9,1.0706403E10,2.9788902E8,5.737251E9,0E0,9.324954E9,0E0,7.6720374E9,0E0,0E0,0E0,0E0,0E0,9.985982E9,0E0,0E0,0E0,0E0,0E0,0E0,0E0,0E0,0E0,0E0,0E0,0E0,0E0,0E0,0E0,0E0,0E0,0E0,0E0,0E0,0E0,0E0,0E0,0E0,0E0,0E0,0E0,0E0,0E0,0E0,0E0,0E0,0E0,0E0,0E0,0E0,0E0,0E0,0E0,0E0,0E0,0E0,0E0,0E0],"parents":[2147483647,0,0,1,1,2,2,3,3,4,4,5,5,6,6,7,7,8,8,9,9,10,10,11,11,12,12,13,13,14,14,15,15,16,16,17,17,18,18,19,19,20,20,21,21,22,22,23,23,24,24,25,25,26,26,28,28,29,29,30,30,31,31,32,32,33,33,34,34,35,35,36,36,37,37,38,38,39,39,40,40,41,41,42,42,43,43,44,44,46,46,47,47,48,48,49,49,50,50,52,52,54,54,60,60],"right_children":[2,4,6,8,10,12,14,16,18,20,22,24,26,28,30,32,34,36,38,40,42,44,46,48,50,52,54,-1,56,58,60,62,64,66,68,70,72,74,76,78,80,82,84,86,88,-1,90,92,94,96,98,-1,100,-1,102,-1,-1,-1,-1,-1,104,-1,-1,-1,-1,-1,-1,-1,-1,-1,-1,-1,-1,-1,-1,-1,-1,-1,-1,-1,-1,-1,-1,-1,-1,-1,-1,-1,-1,-1,-1,-1,-1,-1,-1,-1,-1,-1,-1,-1,-1,-1,-1,-1,-1],"split_conditions":[1.3747946E0,6.5147924E-1,2.09811E0,-2.6168588E-1,8.215039E-1,8.7099934E-1,9.376279E-1,-1.127098E-1,3.1172463E-1,9.407497E-1,1.0425897E0,9.2854005E-1,5.184902E-1,6.004949E-1,2.00001E0,-7.951515E-1,7.897405E-1,-6.571884E-1,4.3285794E0,2.00001E0,2.00001E0,2.00001E0,2.00001E0,9.592398E-1,-2.9214466E-1,-8.652591E-1,2.9722583E-1,8.71182E3,9.239723E-2,-4.875843E-1,1.1801723E0,2.245029E-1,1.06066756E-1,2.00001E0,-9.9951304E-2,2.00001E0,1.1847675E0,5.1501256E-1,1.7181337E0,2.00001E0,4.0459955E-1,2.00001E0,7.1258426E-1,1.486465E-1,2.00001E0,1.7590234E4,-6.41228E-1,-5.128189E-1,2.7387748E0,-6.360783E-1,2.00001E0,-8.838181E3,1.3612196E0,2.4678912E4,1.2712988E0,1.7978959E4,4.5315445E4,5.743196E2,-3.1381807E3,5.239149E4,3.1734436E0,-2.69108E4,-1.7728465E4,-2.000633E4,-1.3885937E4,-1.341519E4,-8.593752E3,-1.1708725E4,-3.1499907E3,-4.640746E3,-1.6746383E4,-8.682322E3,4.7794346E3,-2.2120452E3,5.3026597E3,-1.4141188E4,3.5895295E3,-1.0693046E4,-4.746045E3,1.7702086E3,8.992701E3,1.3618196E3,1.332915E4,3.031478E4,1.016576E4,1.9442174E3,1.3911821E4,4.71576E3,2.1248742E4,3.9563344E4,1.421576E4,1.8351265E3,1.1061027E4,2.2252305E4,-5.0881807E3,8.761359E3,2.2657595E3,4.223599E4,2.7597602E4,1.5620263E4,3.335453E4,5.268345E4,1.085577E4,9.8077664E4,5.0181793E4],"split_indices":[4,4,4,16,16,16,16,12,26,12,9,9,13,24,50,4,19,9,22,245,145,170,193,27,16,2,7,0,16,0,12,9,9,248,13,70,14,16,16,41,16,58,11,3,58,0,11,3,11,1,279,0,14,0,25,0,0,0,0,0,11,0,0,0,0,0,0,0,0,0,0,0,0,0,0,0,0,0,0,0,0,0,0,0,0,0,0,0,0,0,0,0,0,0,0,0,0,0,0,0,0,0,0,0,0],"split_type":[0,0,0,0,0,0,0,0,0,0,0,0,0,0,0,0,0,0,0,0,0,0,0,0,0,0,0,0,0,0,0,0,0,0,0,0,0,0,0,0,0,0,0,0,0,0,0,0,0,0,0,0,0,0,0,0,0,0,0,0,0,0,0,0,0,0,0,0,0,0,0,0,0,0,0,0,0,0,0,0,0,0,0,0,0,0,0,0,0,0,0,0,0,0,0,0,0,0,0,0,0,0,0,0,0],"sum_hessian":[1.46E3,1.231E3,2.29E2,9.12E2,3.19E2,1.68E2,6.1E1,5.64E2,3.48E2,2.39E2,8E1,1.03E2,6.5E1,2.7E1,3.4E1,3.76E2,1.88E2,1.01E2,2.47E2,1.98E2,4.1E1,6.4E1,1.6E1,6.5E1,3.8E1,3.3E1,3.2E1,1E0,2.6E1,2E0,3.2E1,1.05E2,2.71E2,1.45E2,4.3E1,5.5E1,4.6E1,2.14E2,3.3E1,3.7E1,1.61E2,3.3E1,8E0,2.2E1,4.2E1,6E0,1E1,3.7E1,2.8E1,4E0,3.4E1,1E0,3.2E1,4E0,2.8E1,2E0,2.4E1,1E0,1E0,1.2E1,2E1,9E1,1.5E1,1.68E2,1.03E2,8.8E1,5.7E1,9E0,3.4E1,3E0,5.2E1,3.9E1,7E0,1.48E2,6.6E1,3E1,3E0,1.6E1,2.1E1,1.25E2,3.6E1,1E0,3.2E1,6E0,2E0,1E1,1.2E1,2E0,4E1,8E0,2E0,1E1,2.7E1,2.7E1,1E0,2E0,2E0,9E0,2.5E1,6E0,2.6E1,2.7E1,1E0,1.6E1,4E0],"tree_param":{"num_deleted":"0","num_feature":"288","num_nodes":"105","size_leaf_vector":"1"}},{"base_weights":[3.5927222E2,-1.613641E4,8.871719E4,-2.8507246E4,1.9209559E4,6.669728E4,1.4730828E5,-3.8875203E4,-9.897094E3,1.0821097E4,5.3257387E4,4.6022684E4,9.199581E4,1.3296797E5,9.660026E4,-5.5608137E4,-3.1138889E4,-2.044841E4,7.401831E3,5.589535E3,4.0055008E4,3.6632207E4,7.14858E4,1.6270145E4,6.159629E4,6.9778125E4,1.19670266E5,6.307097E4,1.4594548E5,-7.273747E4,-4.8673777E4,-3.715563E4,-1.8783225E4,-3.3764207E4,-1.0055699E4,-3.1197903E3,2.4929623E4,-1.5507942E4,1.0802526E4,3.0821129E4,2.1595094E4,2.7503646E4,5.6703246E4,7.6695805E4,7.671823E2,1.4560521E3,3.0998588E4,4.2529742E4,7.604727E4,7.3799914E4,-9.78625E3,1.3738453E5,8.321214E4,7.115637E4,-2.6674524E3,1.4891822E5,4.8817267E2,-2.2723781E4,-1.1264882E4,-3.7147947E3,-1.5172973E4,-1.4279724E4,-9.307475E3,-1.7058713E4,-5.059949E3,-1.1838823E4,-4.708835E3,-5.240382E3,1.3392765E3,-3.3109312E3,4.326487E3,-3.0134324E3,9.708426E3,-8.543211E3,-1.8861869E3,-5.881541E3,4.246762E3,9.659435E3,-1.7798134E3,-2.1198455E3,9.203666E3,4.62451E3,1.7873414E4,7.0869893E3,2.470367E4,-2.2249548E3,2.5701868E3,1.8185948E3,-4.85406E3,3.663968E3,1.1342416E4,1.3523523E4,-4.3249526E3,1.209899E4,2.467819E4,1.6497125E4,2.7522252E4,3.10864E3,-7.5124526E3,1.6814295E4,4.453235E4,6.359302E3,2.5984062E4,2.2393346E4,5.964502E3,3.5454105E4,5.3961887E4],"categories":[],"categories_nodes":[],"categories_segments":[],"categories_sizes":[],"default_left":[0,0,0,0,0,0,0,0,0,0,0,0,0,0,0,0,0,0,0,0,0,0,0,0,0,0,0,0,0,0,0,0,0,0,0,0,0,0,0,0,0,0,0,0,0,0,0,0,0,0,0,0,0,0,0,0,0,0,0,0,0,0,0,0,0,0,0,0,0,0,0,0,0,0,0,0,0,0,0,0,0,0,0,0,0,0,0,0,0,0,0,0,0,0,0,0,0,0,0,0,0,0,0,0,0,0,0],"id":1,"left_children":[1,3,5,7,9,11,13,15,17,19,21,23,25,27,-1,29,31,33,35,37,39,41,43,45,47,49,51,53,55,57,59,61,63,65,67,69,71,73,75,77,-1,79,81,83,85,87,89,91,93,95,97,99,101,103,-1,105,-1,-1,-1,-1,-1,-1,-1,-1,-1,-1,-1,-1,-1,-1,-1,-1,-1,-1,-1,-1,-1,-1,-1,-1,-1,-1,-1,-1,-1,-1,-1,-1,-1,-1,-1,-1,-1,-1,-1,-1,-1,-1,-1,-1,-1,-1,-1,-1,-1,-1,-1],"loss_changes":[2.1308743E12,5.3925098E11,2.86914E11,1.757779E11,9.0818535E10,8.41593E10,1.1250329E11,7.412685E10,6.0020015E10,3.923437E10,1.6473506E10,4.301647E10,3.7764334E10,4.4313346E10,0E0,1.831528E10,2.926143E10,2.7891474E10,2.3130376E10,2.4363342E10,9.279558E9,4.8531456E9,1.0626056E10,7.373274E9,1.3848609E10,1.4801814E10,9.234481E9,7.0329836E9,2.0779565E10,2.5547407E9,8.627028E9,1.58102E10,8.821244E9,8.544174E9,1.2562526E10,1.1129826E10,1.254142E10,5.0827633E9,1.8325764E10,1.8105262E9,0E0,3.0707323E9,2.6855834E8,6.15057E9,2.5504058E8,1.5602483E9,1.712851E9,4.8588513E9,4.2278584E9,9.12846E9,1.1815898E9,9.666494E9,9.061581E8,3.0446387E8,0E0,2.4413798E10,0E0,0E0,0E0,0E0,0E0,0E0,0E0,0E0,0E0,0E0,0E0,0E0,0E0,0E0,0E0,0E0,0E0,0E0,0E0,0E0,0E0,0E0,0E0,0E0,0E0,0E0,0E0,0E0,0E0,0E0,0E0,0E0,0E0,0E0,0E0,0E0,0E0,0E0,0E0,0E0,0E0,0E0,0E0,0E0,0E0,0E0,0E0,0E0,0E0,0E0,0E0],"parents":[2147483647,0,0,1,1,2,2,3,3,4,4,5,5,6,6,7,7,8,8,9,9,10,10,11,11,12,12,13,13,15,15,16,16,17,17,18,18,19,19,20,20,21,21,22,22,23,23,24,24,25,25,26,26,27,27,28,28,29,29,30,30,31,31,32,32,33,33,34,34,35,35,36,36,37,37,38,38,39,39,41,41,42,42,43,43,44,44,45,45,46,46,47,47,48,48,49,49,50,50,51,51,52,52,53,53,55,55],"right_children":[2,4,6,8,10,12,14,16,18,20,22,24,26,28,-1,30,32,34,36,38,40,42,44,46,48,50,52,54,56,58,60,62,64,66,68,70,72,74,76,78,-1,80,82,84,86,88,90,92,94,96,98,100,102,104,-1,106,-1,-1,-1,-1,-1,-1,-1,-1,-1,-1,-1,-1,-1,-1,-1,-1,-1,-1,-1,-1,-1,-1,-1,-1,-1,-1,-1,-1,-1,-1,-1,-1,-1,-1,-1,-1,-1,-1,-1,-1,-1,-1,-1,-1,-1,-1,-1,-1,-1,-1,-1],"split_conditions":[1.3747946E0,6.5147924E-1,2.09811E0,-1.9696102E-1,9.60472E-1,7.701047E-1,2.8461676E0,-6.7128485E-1,9.563223E-3,9.954749E-1,3.0913004E-1,7.172886E-1,7.5913894E-1,1.6503069E0,9.660026E4,2.00001E0,3.5811877E-3,-7.1836114E-2,1.695929E-1,-2.9934803E-1,2.00001E0,8.7866807E-1,2.00001E0,1.03025764E-1,-1.5931796E-1,3.098594E-1,6.20891E-1,2.4504392E0,2.7229624E0,1.334676E-2,2.00001E0,-8.140122E-1,-5.171998E-1,6.0295644E-3,2.00001E0,5.8794695E-1,-5.037822E-2,-2.9653975E-1,-2.842164E-1,-6.360783E-1,2.1595094E4,-1.6649072E0,6.004949E-1,2.00001E0,-1.5671505E0,2.00001E0,-8.087566E-1,1.6749791E0,-5.128189E-1,1.4763672E0,-1.2563303E0,2.00001E0,-2.2691353E-3,1.7523657E0,-2.6674524E3,1.2993257E0,4.8817267E2,-2.2723781E4,-1.1264882E4,-3.7147947E3,-1.5172973E4,-1.4279724E4,-9.307475E3,-1.7058713E4,-5.059949E3,-1.1838823E4,-4.708835E3,-5.240382E3,1.3392765E3,-3.3109312E3,4.326487E3,-3.0134324E3,9.708426E3,-8.543211E3,-1.8861869E3,-5.881541E3,4.246762E3,9.659435E3,-1.7798134E3,-2.1198455E3,9.203666E3,4.62451E3,1.7873414E4,7.0869893E3,2.470367E4,-2.2249548E3,2.5701868E3,1.8185948E3,-4.85406E3,3.663968E3,1.1342416E4,1.3523523E4,-4.3249526E3,1.209899E4,2.467819E4,1.6497125E4,2.7522252E4,3.10864E3,-7.5124526E3,1.6814295E4,4.453235E4,6.359302E3,2.5984062E4,2.2393346E4,5.964502E3,3.5454105E4,5.3961887E4],"split_indices":[4,4,4,16,16,16,14,6,9,12,12,12,13,26,0,217,12,4,3,27,145,7,234,27,9,1,35,2,2,3,70,27,5,28,49,7,16,3,7,1,0,6,24,111,0,178,11,12,3,16,0,154,2,8,0,16,0,0,0,0,0,0,0,0,0,0,0,0,0,0,0,0,0,0,0,0,0,0,0,0,0,0,0,0,0,0,0,0,0,0,0,0,0,0,0,0,0,0,0,0,0,0,0,0,0,0,0],"split_type":[0,0,0,0,0,0,0,0,0,0,0,0,0,0,0,0,0,0,0,0,0,0,0,0,0,0,0,0,0,0,0,0,0,0,0,0,0,0,0,0,0,0,0,0,0,0,0,0,0,0,0,0,0,0,0,0,0,0,0,0,0,0,0,0,0,0,0,0,0,0,0,0,0,0,0,0,0,0,0,0,0,0,0,0,0,0,0,0,0,0,0,0,0,0,0,0,0,0,0,0,0,0,0,0,0,0,0],"sum_hessian":[1.46E3,1.231E3,2.29E2,9.12E2,3.19E2,1.68E2,6.1E1,5.85E2,3.27E2,2.57E2,6.2E1,9.4E1,7.4E1,5.8E1,3E0,1.83E2,4.02E2,2.03E2,1.24E2,2.19E2,3.8E1,3.4E1,2.8E1,3.3E1,6.1E1,4.3E1,3.1E1,1E1,4.8E1,5E1,1.33E2,2.69E2,1.33E2,8.8E1,1.15E2,7.8E1,4.6E1,4.3E1,1.76E2,3.1E1,7E0,2.5E1,9E0,2.6E1,2E0,1.7E1,1.6E1,2.8E1,3.3E1,4.1E1,2E0,1.9E1,1.2E1,9E0,1E0,4.7E1,1E0,4.5E1,5E0,7E0,1.26E2,9.7E1,1.72E2,5E0,1.28E2,6.6E1,2.2E1,7.6E1,3.9E1,5.4E1,2.4E1,8E0,3.8E1,1.7E1,2.6E1,1.7E1,1.59E2,3E1,1E0,2E0,2.3E1,1E0,8E0,3E0,2.3E1,1E0,1E0,1.4E1,3E0,5E0,1.1E1,2.7E1,1E0,6E0,2.7E1,2.2E1,1.9E1,1E0,1E0,3E0,1.6E1,1E0,1.1E1,8E0,1E0,2.6E1,2.1E1],"tree_param":{"num_deleted":"0","num_feature":"288","num_nodes":"107","size_leaf_vector":"1"}},{"base_weights":[5.0559955E2,-1.1321619E4,6.3856152E4,-2.9004129E4,2.4279414E3,5.9419688E4,7.548394E4,-4.245184E4,-2.4360604E4,-6.4758506E3,2.229488E4,8.702036E4,4.0170195E4,-5.323455E4,-2.8941445E4,-2.7388877E4,-1.0751766E4,-2.5654922E4,-9.052995E2,1.0501061E4,4.1295824E4,4.7601016E4,9.7309055E4,2.9937777E4,7.089046E4,-1.5595781E4,-5.5135383E4,2.0339204E3,-3.08405E4,-5.6789234E4,-2.5999656E4,-1.7213145E4,4.604969E3,-1.8241812E4,-3.6436555E4,-6.891033E3,1.0743374E4,-2.6269555E4,1.5356765E4,4.458693E4,-7.8226616E3,-3.0070312E2,5.5601344E4,7.342416E4,1.126215E5,-1.0440033E4,3.2990742E4,6.086451E4,3.4458867E4,-7.3096035E3,-2.1936165E3,-1.041399E4,-1.7490264E4,-1.339728E4,-8.0481978E3,-1.7910492E4,-2.8391907E3,-9.142441E3,-5.8838965E3,-3.7078298E3,-8.605576E3,9.003093E3,-6.96904E2,-7.3390454E3,-1.9003737E3,-7.7509224E3,-1.29105625E4,-3.2181582E3,4.674529E2,-3.6749878E3,4.470577E3,-1.745656E3,-9.780466E3,6.218078E2,6.468963E3,1.1155857E4,1.9566445E4,-5.466041E3,2.5944578E3,4.2748267E3,-2.9701655E3,1.8543115E4,1.1858063E3,1.650639E4,2.840179E4,3.590615E4,1.0919461E4,-6.049192E3,1.2974696E3,3.6730706E3,1.1004497E4,1.480366E4,2.5480096E4],"categories":[],"categories_nodes":[],"categories_segments":[],"categories_sizes":[],"default_left":[0,0,0,0,0,0,0,0,0,0,0,0,0,0,0,0,0,0,0,0,0,0,0,0,0,0,0,0,0,0,0,0,0,0,0,0,0,0,0,0,0,0,0,0,0,0,0,0,0,0,0,0,0,0,0,0,0,0,0,0,0,0,0,0,0,0,0,0,0,0,0,0,0,0,0,0,0,0,0,0,0,0,0,0,0,0,0,0,0,0,0,0,0],"id":2,"left_children":[1,3,5,7,9,11,-1,13,15,17,19,21,23,25,27,29,31,33,35,37,39,41,43,45,47,49,51,-1,53,55,57,59,61,63,65,67,69,71,73,75,77,79,81,83,85,87,89,91,-1,-1,-1,-1,-1,-1,-1,-1,-1,-1,-1,-1,-1,-1,-1,-1,-1,-1,-1,-1,-1,-1,-1,-1,-1,-1,-1,-1,-1,-1,-1,-1,-1,-1,-1,-1,-1,-1,-1,-1,-1,-1,-1,-1,-1],"loss_changes":[1.09539295E12,2.9960254E11,1.76634E11,3.2623591E10,1.22906804E11,1.1657793E11,0E0,1.8417304E10,1.6313663E10,5.1259015E10,4.77465E10,3.2680772E10,4.0313946E10,4.505993E9,4.4827853E9,1.1961041E10,7.521193E9,7.967277E9,2.6081778E10,2.4328745E10,1.3604422E10,8.0645325E9,1.8063884E10,1.3041451E10,7.557497E9,1.8506253E8,2.5660457E9,0E0,2.128982E9,1.3646111E9,8.434008E9,2.5966275E9,4.1178926E9,4.734507E9,1.8958254E9,8.022607E9,1.2326147E10,1.882197E9,9.76648E9,9.333408E9,1.1851031E9,6.9979315E8,5.5280763E9,6.9129994E9,1.8263474E10,1.2357934E9,6.902178E9,3.8492078E9,0E0,0E0,0E0,0E0,0E0,0E0,0E0,0E0,0E0,0E0,0E0,0E0,0E0,0E0,0E0,0E0,0E0,0E0,0E0,0E0,0E0,0E0,0E0,0E0,0E0,0E0,0E0,0E0,0E0,0E0,0E0,0E0,0E0,0E0,0E0,0E0,0E0,0E0,0E0,0E0,0E0,0E0,0E0,0E0,0E0],"parents":[2147483647,0,0,1,1,2,2,3,3,4,4,5,5,7,7,8,8,9,9,10,10,11,11,12,12,13,13,14,14,15,15,16,16,17,17,18,18,19,19,20,20,21,21,22,22,23,23,24,24,25,25,26,26,28,28,29,29,30,30,31,31,32,32,33,33,34,34,35,35,36,36,37,37,38,38,39,39,40,40,41,41,42,42,43,43,44,44,45,45,46,46,47,47],"right_children":[2,4,6,8,10,12,-1,14,16,18,20,22,24,26,28,30,32,34,36,38,40,42,44,46,48,50,52,-1,54,56,58,60,62,64,66,68,70,72,74,76,78,80,82,84,86,88,90,92,-1,-1,-1,-1,-1,-1,-1,-1,-1,-1,-1,-1,-1,-1,-1,-1,-1,-1,-1,-1,-1,-1,-1,-1,-1,-1,-1,-1,-1,-1,-1,-1,-1,-1,-1,-1,-1,-1,-1,-1,-1,-1,-1,-1,-1],"split_conditions":[1.3747946E0,-7.1836114E-2,2.8461676E0,-7.5345033E-1,3.8937017E-1,2.00001E0,7.548394E4,-6.8810856E-1,1.12867236E-1,-4.1631716E-1,-1.694075E-2,1.6503069E0,1.617239E0,2.00001E0,2.00001E0,-1.4161423E0,3.2509157E-1,2.00001E0,5.1662964E-1,2.00001E0,4.3285794E0,-1.8363531E-1,1.5856849E-1,-6.3715935E-1,3.2486866E0,-1.541051E0,2.00001E0,2.0339204E3,2.00001E0,4.281016E-1,-5.749375E-1,6.5108836E-2,2.00001E0,1.2806852E0,-1.2718127E0,-5.9896585E-2,-6.7184454E-1,9.1220975E-1,2.00001E0,1.5791656E0,1.5391885E0,4.315139E-2,1.7691313E0,1.4483432E0,1.8599724E0,-8.4693915E-1,-4.65915E-1,2.0847623E0,3.4458867E4,-7.3096035E3,-2.1936165E3,-1.041399E4,-1.7490264E4,-1.339728E4,-8.0481978E3,-1.7910492E4,-2.8391907E3,-9.142441E3,-5.8838965E3,-3.7078298E3,-8.605576E3,9.003093E3,-6.96904E2,-7.3390454E3,-1.9003737E3,-7.7509224E3,-1.29105625E4,-3.2181582E3,4.674529E2,-3.6749878E3,4.470577E3,-1.745656E3,-9.780466E3,6.218078E2,6.468963E3,1.1155857E4,1.9566445E4,-5.466041E3,2.5944578E3,4.2748267E3,-2.9701655E3,1.8543115E4,1.1858063E3,1.650639E4,2.840179E4,3.590615E4,1.0919461E4,-6.049192E3,1.2974696E3,3.6730706E3,1.1004497E4,1.480366E4,2.5480096E4],"split_indices":[4,4,14,12,16,182,0,16,3,27,12,26,16,118,82,5,12,40,12,41,22,16,3,12,16,0,76,0,217,1,7,11,226,5,25,16,7,23,227,16,16,2,2,9,2,12,3,8,0,0,0,0,0,0,0,0,0,0,0,0,0,0,0,0,0,0,0,0,0,0,0,0,0,0,0,0,0,0,0,0,0,0,0,0,0,0,0,0,0,0,0,0,0],"split_type":[0,0,0,0,0,0,0,0,0,0,0,0,0,0,0,0,0,0,0,0,0,0,0,0,0,0,0,0,0,0,0,0,0,0,0,0,0,0,0,0,0,0,0,0,0,0,0,0,0,0,0,0,0,0,0,0,0,0,0,0,0,0,0,0,0,0,0,0,0,0,0,0,0,0,0,0,0,0,0,0,0,0,0,0,0,0,0,0,0,0,0,0,0],"sum_hessian":[1.46E3,1.231E3,2.29E2,5.38E2,6.93E2,2.25E2,4E0,1.36E2,4.02E2,4.79E2,2.14E2,9.1E1,1.34E2,7.4E1,6.2E1,3.28E2,7.4E1,1.07E2,3.72E2,1.33E2,8.1E1,2E1,7.1E1,1.02E2,3.2E1,4E0,7E1,3E0,5.9E1,1.3E1,3.15E2,5.2E1,2.2E1,6.5E1,4.2E1,2.46E2,1.26E2,1.5E1,1.18E2,7.6E1,5E0,3E0,1.7E1,3E1,4.1E1,7E0,9.5E1,2.8E1,4E0,1E0,3E0,1.1E1,5.9E1,1.1E1,4.8E1,1.2E1,1E0,1.83E2,1.32E2,3.8E1,1.4E1,4E0,1.8E1,4.2E1,2.3E1,1.8E1,2.4E1,1.69E2,7.7E1,1.9E1,1.07E2,4E0,1.1E1,3.8E1,8E1,5.8E1,1.8E1,3E0,2E0,1E0,2E0,1.5E1,2E0,1.8E1,1.2E1,3.7E1,4E0,4E0,3E0,1.5E1,8E1,2.1E1,7E0],"tree_param":{"num_deleted":"0","num_feature":"288","num_nodes":"93","size_leaf_vector":"1"}},{"base_weights":[4.6882315E2,-8.010397E3,4.5885914E4,-2.0482117E4,1.687395E3,4.246739E4,5.7367793E4,-3.5211168E4,-1.776222E4,-8.78982E3,1.0418563E4,6.2139984E4,2.8746307E4,-3.64803E4,3.2377722E3,-2.1173947E4,-9.291741E3,-1.6054477E4,6.968705E2,4.806084E3,2.5213041E4,4.137083E4,7.598919E4,2.1052809E4,5.188825E4,-4.031358E4,-2.1849953E4,-2.83364E4,-1.7478643E4,-1.2387643E4,6.8915625E3,-3.2640188E4,-1.399744E4,-1.3894386E3,2.754057E4,-2.0097546E2,2.4480264E4,2.8232568E4,-1.4550363E4,3.0711316E4,6.921229E4,7.9382125E4,-2.4454531E3,5.6197485E2,2.5096787E4,3.49176E4,6.773722E4,-1.4540513E4,-1.0215738E4,-7.386806E3,3.436547E2,-9.950025E3,-6.1340586E3,-5.4871787E3,2.8478752E3,-6.568021E3,-2.6875261E3,3.6523882E3,-4.0517346E3,-1.0274739E4,-3.792836E3,-6.859303E3,-2.974207E3,1.7024181E3,-2.0149552E3,4.198429E3,1.0271595E4,-2.9880376E3,1.3745105E3,4.910522E3,1.3121065E4,6.6112656E3,1.2813542E4,-1.4975626E2,-6.8643696E3,-2.3761313E3,1.012608E4,2.1876127E4,5.3758643E3,1.7170375E4,3.0850848E4,-6.313484E3,1.8859066E3,6.8048486E3,1.472989E4,3.0794907E3,1.3082932E4,5.508666E3,2.3315691E4],"categories":[],"categories_nodes":[],"categories_segments":[],"categories_sizes":[],"default_left":[0,0,0,1,0,0,0,0,0,0,0,0,0,0,0,0,0,0,0,0,0,0,0,0,0,0,0,0,0,0,0,0,0,0,0,0,0,0,0,0,0,0,0,0,0,0,0,0,0,0,0,0,0,0,0,0,0,0,0,0,0,0,0,0,0,0,0,0,0,0,0,0,0,0,0,0,0,0,0,0,0,0,0,0,0,0,0,0,0],"id":3,"left_children":[1,3,5,7,9,11,-1,13,15,17,19,21,23,25,-1,27,29,31,33,35,37,39,41,43,45,47,49,51,53,55,57,59,61,63,65,67,69,71,73,75,77,79,-1,81,83,85,87,-1,-1,-1,-1,-1,-1,-1,-1,-1,-1,-1,-1,-1,-1,-1,-1,-1,-1,-1,-1,-1,-1,-1,-1,-1,-1,-1,-1,-1,-1,-1,-1,-1,-1,-1,-1,-1,-1,-1,-1,-1,-1],"loss_changes":[5.6300084E11,1.490427E11,1.0615423E11,2.0967719E10,6.3577534E10,5.921774E10,0E0,5.239677E9,1.3010076E10,2.1789139E10,3.1348593E10,2.331879E10,2.294335E10,3.6617994E9,0E0,8.1066394E9,6.748924E9,5.650137E9,7.7668536E9,2.7193623E10,1.2897731E10,9.448673E9,1.6063234E10,8.5209375E9,6.5107067E9,1.5661957E9,1.2396503E9,3.475759E9,4.9258537E9,3.4547773E9,2.5351583E9,1.7831526E8,5.602691E9,4.8925604E9,4.281472E8,1.0360778E10,8.0316805E9,7.7595607E9,9.2504614E8,3.7932052E9,5.9530445E8,2.1125562E10,0E0,2.358648E9,3.8692864E9,3.4094756E9,6.4584827E9,0E0,0E0,0E0,0E0,0E0,0E0,0E0,0E0,0E0,0E0,0E0,0E0,0E0,0E0,0E0,0E0,0E0,0E0,0E0,0E0,0E0,0E0,0E0,0E0,0E0,0E0,0E0,0E0,0E0,0E0,0E0,0E0,0E0,0E0,0E0,0E0,0E0,0E0,0E0,0E0,0E0,0E0],"parents":[2147483647,0,0,1,1,2,2,3,3,4,4,5,5,7,7,8,8,9,9,10,10,11,11,12,12,13,13,15,15,16,16,17,17,18,18,19,19,20,20,21,21,22,22,23,23,24,24,25,25,26,26,27,27,28,28,29,29,30,30,31,31,32,32,33,33,34,34,35,35,36,36,37,37,38,38,39,39,40,40,41,41,43,43,44,44,45,45,46,46],"right_children":[2,4,6,8,10,12,-1,14,16,18,20,22,24,26,-1,28,30,32,34,36,38,40,42,44,46,48,50,52,54,56,58,60,62,64,66,68,70,72,74,76,78,80,-1,82,84,86,88,-1,-1,-1,-1,-1,-1,-1,-1,-1,-1,-1,-1,-1,-1,-1,-1,-1,-1,-1,-1,-1,-1,-1,-1,-1,-1,-1,-1,-1,-1,-1,-1,-1,-1,-1,-1,-1,-1,-1,-1,-1,-1],"split_conditions":[1.3747946E0,-7.1836114E-2,2.8461676E0,-2.3974524E0,-5.037822E-2,2.00001E0,5.7367793E4,2.605522E0,6.004949E-1,-5.07865E-2,1.695929E-1,6.40655E-1,1.617239E0,1.3900228E0,3.2377722E3,-6.571884E-1,5.576735E-1,-1.4248134E0,1.2296084E0,5.989749E-1,2.00001E0,1.8782225E0,2.7229624E0,-1.9707777E-1,8.0054086E-1,-1.640915E0,2.143103E0,-6.7184454E-1,1.1343526E0,-8.289803E-1,2.00001E0,1.0240287E0,-5.388019E-1,-5.035007E-2,-7.4383295E-1,6.504719E-3,1.4645464E0,6.637877E-1,2.5089064E-1,4.1630018E-1,1.5671505E0,2.260179E-1,-2.4454531E3,-1.4993035E0,3.8174272E-1,-3.7844133E-1,2.0462524E-2,-1.4540513E4,-1.0215738E4,-7.386806E3,3.436547E2,-9.950025E3,-6.1340586E3,-5.4871787E3,2.8478752E3,-6.568021E3,-2.6875261E3,3.6523882E3,-4.0517346E3,-1.0274739E4,-3.792836E3,-6.859303E3,-2.974207E3,1.7024181E3,-2.0149552E3,4.198429E3,1.0271595E4,-2.9880376E3,1.3745105E3,4.910522E3,1.3121065E4,6.6112656E3,1.2813542E4,-1.4975626E2,-6.8643696E3,-2.3761313E3,1.012608E4,2.1876127E4,5.3758643E3,1.7170375E4,3.0850848E4,-6.313484E3,1.8859066E3,6.8048486E3,1.472989E4,3.0794907E3,1.3082932E4,5.508666E3,2.3315691E4],"split_indices":[4,4,14,25,16,182,0,19,24,13,3,16,16,21,0,9,12,13,25,27,234,9,2,12,13,7,23,7,14,16,241,7,6,11,0,7,27,3,35,12,0,3,0,6,5,0,3,0,0,0,0,0,0,0,0,0,0,0,0,0,0,0,0,0,0,0,0,0,0,0,0,0,0,0,0,0,0,0,0,0,0,0,0,0,0,0,0,0,0],"split_type":[0,0,0,0,0,0,0,0,0,0,0,0,0,0,0,0,0,0,0,0,0,0,0,0,0,0,0,0,0,0,0,0,0,0,0,0,0,0,0,0,0,0,0,0,0,0,0,0,0,0,0,0,0,0,0,0,0,0,0,0,0,0,0,0,0,0,0,0,0,0,0,0,0,0,0,0,0,0,0,0,0,0,0,0,0,0,0,0,0],"sum_hessian":[1.46E3,1.231E3,2.29E2,5.38E2,6.93E2,2.25E2,4E0,8.2E1,4.56E2,3.15E2,3.78E2,9.1E1,1.34E2,8E1,2E0,3.24E2,1.32E2,1.78E2,1.37E2,2.75E2,1.03E2,3.8E1,5.3E1,1.02E2,3.2E1,6.2E1,1.8E1,1.08E2,2.16E2,1.11E2,2.1E1,1.8E1,1.6E2,1.28E2,9E0,2.2E2,5.5E1,9.6E1,7E0,2.9E1,9E0,5.1E1,2E0,1.7E1,8.5E1,1.7E1,1.5E1,2.4E1,3.8E1,1.6E1,2E0,6.5E1,4.3E1,2.1E2,6E0,2.8E1,8.3E1,1.7E1,4E0,1.6E1,2E0,4.9E1,1.11E2,5.5E1,7.3E1,4E0,5E0,7.2E1,1.48E2,4E1,1.5E1,6.9E1,2.7E1,3E0,4E0,2E0,2.7E1,8E0,1E0,2.8E1,2.3E1,3E0,1.4E1,7.9E1,6E0,5E0,1.2E1,3E0,1.2E1],"tree_param":{"num_deleted":"0","num_feature":"288","num_nodes":"89","size_leaf_vector":"1"}},{"base_weights":[4.391839E2,-5.6380063E3,3.298988E4,8.111914E3,-1.0309841E4,2.7344496E4,8.512146E4,3.6504775E3,2.507785E4,-1.6705941E4,-4.903704E3,1.9460771E4,5.5643832E4,2.6907008E4,1.1049441E5,7.950174E2,2.05232E4,8.67754E3,2.9824393E4,-2.6011104E4,-1.2866155E4,-5.745879E3,3.305716E4,6.835984E3,2.3716098E4,4.1993246E4,8.96835E4,1.2906647E4,3.6320312E1,1.18794555E5,-8.561555E2,-4.0354727E3,6.774531E3,3.3299293E4,1.0879354E4,4.343667E3,2.5566145E3,2.0837652E4,4.761886E4,-2.9616637E4,-1.8438266E4,-1.7610027E4,-9.1349E3,-1.0238481E4,4.4564218E2,1.3248982E4,2.5806484E3,2.8136611E4,1.1633656E3,1.7140016E4,2.9320293E4,1.8280088E4,4.8586523E4,9.065682E3,9.8554516E4,2.1403079E3,-4.7078125E3,1.2866224E5,1.19176875E4,-3.5529473E3,4.797283E2,1.5987946E3,7.3164272E3,2.6681147E3,1.240966E4,-2.189258E2,4.301017E3,-1.7445422E3,1.7337837E3,-1.2844595E3,7.2650854E3,2.4787769E3,1.5795301E4,-9.044948E3,1.9557833E3,-5.861232E3,-9.335262E2,-6.764214E3,-3.8540378E3,-4.189453E3,-1.7334083E3,-4.523629E3,-1.1883042E3,-7.012642E2,4.119218E3,1.0797563E3,-7.1245316E1,1.977736E3,9.001673E3,-8.48167E2,4.495502E3,4.61809E3,1.776454E4,2.8359048E3,9.828196E3,6.0231196E3,5.856422E2,3.5228782E3,1.5350261E4,3.1110432E4,7.834838E3,-4.0127346E1,-2.0783884E3,4.1493938E4,1.6081566E4],"categories":[],"categories_nodes":[],"categories_segments":[],"categories_sizes":[],"default_left":[0,0,0,0,0,0,0,0,0,0,0,0,0,0,0,0,0,0,0,0,0,0,0,0,0,0,0,0,0,0,0,0,0,0,0,0,0,0,0,0,0,0,0,0,0,0,0,0,0,0,0,0,0,0,0,0,0,0,0,0,0,0,0,0,0,0,0,0,0,0,0,0,0,0,0,0,0,0,0,0,0,0,0,0,0,0,0,0,0,0,0,0,0,0,0,0,0,0,0,0,0,0,0,0,0],"id":4,"left_children":[1,3,5,7,9,11,13,15,17,19,21,23,25,27,29,31,33,35,37,39,41,43,45,47,49,51,53,-1,55,57,-1,59,61,63,65,-1,67,69,71,73,75,77,79,81,83,-1,85,87,89,91,93,95,97,-1,99,-1,101,103,-1,-1,-1,-1,-1,-1,-1,-1,-1,-1,-1,-1,-1,-1,-1,-1,-1,-1,-1,-1,-1,-1,-1,-1,-1,-1,-1,-1,-1,-1,-1,-1,-1,-1,-1,-1,-1,-1,-1,-1,-1,-1,-1,-1,-1,-1,-1],"loss_changes":[2.8919628E11,7.9224046E10,6.5362E10,2.360019E10,3.1730008E10,4.55459E10,2.9522493E10,1.198035E10,4.801106E9,1.4707597E10,1.6174792E10,8.702099E9,1.7143677E10,3.4626376E9,1.4451147E10,6.20851E9,4.0733092E9,5.3113702E8,7.0034473E9,2.7850179E9,5.149311E9,1.3634423E10,3.609262E9,5.1629706E9,4.0304476E9,4.427645E9,3.3519206E9,0E0,1.682834E8,5.811978E9,0E0,5.254096E9,2.313747E9,2.5850235E9,8.934756E8,0E0,2.7642157E8,3.0746706E9,2.7337073E9,1.7572004E9,6.467584E8,2.79117E9,2.6756076E9,8.5695304E9,7.685901E9,0E0,1.2336262E7,1.6457677E8,1.9728429E9,3.42374E9,4.1331016E9,2.24875E8,1.8715812E9,0E0,1.020076E9,0E0,2.9538576E7,1.2780831E9,0E0,0E0,0E0,0E0,0E0,0E0,0E0,0E0,0E0,0E0,0E0,0E0,0E0,0E0,0E0,0E0,0E0,0E0,0E0,0E0,0E0,0E0,0E0,0E0,0E0,0E0,0E0,0E0,0E0,0E0,0E0,0E0,0E0,0E0,0E0,0E0,0E0,0E0,0E0,0E0,0E0,0E0,0E0,0E0,0E0,0E0,0E0],"parents":[2147483647,0,0,1,1,2,2,3,3,4,4,5,5,6,6,7,7,8,8,9,9,10,10,11,11,12,12,13,13,14,14,15,15,16,16,17,17,18,18,19,19,20,20,21,21,22,22,23,23,24,24,25,25,26,26,28,28,29,29,31,31,32,32,33,33,34,34,36,36,37,37,38,38,39,39,40,40,41,41,42,42,43,43,44,44,46,46,47,47,48,48,49,49,50,50,51,51,52,52,54,54,56,56,57,57],"right_children":[2,4,6,8,10,12,14,16,18,20,22,24,26,28,30,32,34,36,38,40,42,44,46,48,50,52,54,-1,56,58,-1,60,62,64,66,-1,68,70,72,74,76,78,80,82,84,-1,86,88,90,92,94,96,98,-1,100,-1,102,104,-1,-1,-1,-1,-1,-1,-1,-1,-1,-1,-1,-1,-1,-1,-1,-1,-1,-1,-1,-1,-1,-1,-1,-1,-1,-1,-1,-1,-1,-1,-1,-1,-1,-1,-1,-1,-1,-1,-1,-1,-1,-1,-1,-1,-1,-1,-1],"split_conditions":[1.3747946E0,2.00001E0,2.414878E0,7.8533405E-1,-5.567551E-1,1.8124247E0,1.6503069E0,7.991376E-1,-3.7232423E-1,-7.727328E-1,2.4186754E0,3.3228526E-1,1.2165976E0,4.0651557E-1,3.3440967E0,1.3577713E-1,2.00001E0,-8.3067E-2,1.6139844E-1,-3.8112345E-1,-1.4562659E-2,-4.1948803E-2,2.835344E-1,2.00001E0,6.6159534E-1,1.2663127E0,2.00001E0,1.2906647E4,7.3374964E-2,1.0807525E0,-8.561555E2,6.004949E-1,1.1209357E0,6.5147924E-1,2.00001E0,4.343667E3,1.1070547E0,-4.1105384E-1,-5.811155E-2,1.3900228E0,3.9488094E0,-1.385307E-1,-8.1720513E-1,3.8174272E-1,1.1206031E0,1.3248982E4,1.3251379E0,-9.37926E-1,8.8334477E-1,3.8174272E-1,2.00001E0,2.0847623E0,2.00001E0,9.065682E3,5.9663165E-1,2.1403079E3,-1.2563303E0,-4.8350178E-2,1.19176875E4,-3.5529473E3,4.797283E2,1.5987946E3,7.3164272E3,2.6681147E3,1.240966E4,-2.189258E2,4.301017E3,-1.7445422E3,1.7337837E3,-1.2844595E3,7.2650854E3,2.4787769E3,1.5795301E4,-9.044948E3,1.9557833E3,-5.861232E3,-9.335262E2,-6.764214E3,-3.8540378E3,-4.189453E3,-1.7334083E3,-4.523629E3,-1.1883042E3,-7.012642E2,4.119218E3,1.0797563E3,-7.1245316E1,1.977736E3,9.001673E3,-8.48167E2,4.495502E3,4.61809E3,1.776454E4,2.8359048E3,9.828196E3,6.0231196E3,5.856422E2,3.5228782E3,1.5350261E4,3.1110432E4,7.834838E3,-4.0127346E1,-2.0783884E3,4.1493938E4,1.6081566E4],"split_indices":[4,169,16,16,16,9,26,9,29,13,3,27,6,2,12,27,246,12,13,7,9,7,0,224,16,13,165,0,1,0,0,24,7,4,239,0,16,2,3,21,18,2,7,5,14,0,0,9,13,5,69,8,69,0,28,0,0,30,0,0,0,0,0,0,0,0,0,0,0,0,0,0,0,0,0,0,0,0,0,0,0,0,0,0,0,0,0,0,0,0,0,0,0,0,0,0,0,0,0,0,0,0,0,0,0],"split_type":[0,0,0,0,0,0,0,0,0,0,0,0,0,0,0,0,0,0,0,0,0,0,0,0,0,0,0,0,0,0,0,0,0,0,0,0,0,0,0,0,0,0,0,0,0,0,0,0,0,0,0,0,0,0,0,0,0,0,0,0,0,0,0,0,0,0,0,0,0,0,0,0,0,0,0,0,0,0,0,0,0,0,0,0,0,0,0,0,0,0,0,0,0,0,0,0,0,0,0,0,0,0,0,0,0],"sum_hessian":[1.46E3,1.231E3,2.29E2,3.12E2,9.19E2,2.08E2,2.1E1,2.48E2,6.4E1,4.2E2,4.99E2,1.64E2,4.4E1,7E0,1.4E1,2.13E2,3.5E1,1.5E1,4.9E1,1.21E2,2.99E2,4.89E2,1E1,4.2E1,1.22E2,3.3E1,1.1E1,4E0,3E0,1.3E1,1E0,1.18E2,9.5E1,1.4E1,2.1E1,7E0,8E0,3.4E1,1.5E1,8E1,4.1E1,1.3E2,1.69E2,2.83E2,2.06E2,7E0,3E0,8E0,3.4E1,5.8E1,6.4E1,8E0,2.5E1,2E0,9E0,1E0,2E0,1.1E1,2E0,4.9E1,6.9E1,8.9E1,6E0,4E0,1E1,5E0,1.6E1,2E0,6E0,4E0,3E1,2E0,1.3E1,7.9E1,1E0,3.8E1,3E0,6.2E1,6.8E1,6.8E1,1.01E2,1.59E2,1.24E2,1.71E2,3.5E1,2E0,1E0,1E0,7E0,2.7E1,7E0,5.7E1,1E0,1E1,5.4E1,7E0,1E0,2E0,2.3E1,8E0,1E0,1E0,1E0,9E0,2E0],"tree_param":{"num_deleted":"0","num_feature":"288","num_nodes":"105","size_leaf_vector":"1"}},{"base_weights":[4.7160272E2,-7.4413877E3,1.3630233E4,-1.2575077E4,-2.9050488E3,8.0638696E3,3.7091203E4,-2.5911521E4,-1.0782473E4,3.5350554E3,-5.6538765E3,5.447734E3,2.7731053E4,2.837788E4,7.0593164E4,-7.446172E3,-2.7797756E4,-2.0248799E4,-8.83112E3,1.4955687E2,1.7188633E4,-3.330765E3,-1.4763378E4,-7.833538E3,8.192929E3,1.8123947E4,3.738177E4,1.7803035E4,3.695649E4,8.273978E4,-1.7148945E3,1.064E3,-4.893303E3,-2.8854928E4,-3.379039E3,-2.2788682E4,-9.550026E3,-9.96117E3,2.6959688E3,-3.133219E3,5.7417983E3,-3.9615508E3,1.9781406E4,-1.6102464E4,-1.5681223E3,-1.7096234E4,7.101E2,-1.7094107E4,-4.6553994E3,1.5350311E4,3.7453152E3,1.2455305E4,1.4706593E4,2.539793E3,4.2017504E4,2.7350252E4,6.8883047E3,2.8255596E4,4.783378E4,4.760364E4,1.207095E5,1.465425E3,-1.6629078E3,-1.9410939E2,5.550063E2,-8.8881875E3,5.376469E2,1.6624161E3,-3.1829836E3,-6.9369136E3,-9.1057855E2,-3.2859375E1,-3.9945815E3,-5.905464E3,-2.6389233E3,4.5069355E3,-5.7275244E2,-3.832843E2,-3.8306028E3,2.611623E3,-3.6918417E2,1.731797E1,-1.5961658E3,8.389362E3,3.230948E3,-5.6975767E3,1.962422E1,-7.378977E2,5.781702E3,-3.7683015E3,-8.094181E3,6.107004E3,-1.120412E3,1.1954274E3,-5.5981753E3,-3.7954487E3,-6.604598E2,-5.7071893E2,5.0601265E3,2.0656204E2,3.7825437E3,-5.996813E2,4.8506436E3,1.3499689E2,1.3213805E3,1.3727485E3,1.3074765E4,3.0866243E3,1.2577612E4,-3.35039E3,4.095478E3,6.883077E3,1.4430631E4,1.492359E4,2.0139703E3,7.169316E3,1.7320775E4,3.9509473E4,6.568247E3],"categories":[],"categories_nodes":[],"categories_segments":[],"categories_sizes":[],"default_left":[0,0,0,0,0,0,0,0,0,0,0,0,0,0,0,0,0,0,0,0,0,0,0,0,0,0,0,0,0,0,0,0,0,0,0,0,0,0,0,0,0,0,0,0,0,0,0,0,0,0,0,0,0,0,0,0,0,0,0,0,0,0,0,0,0,0,0,0,0,0,0,0,0,0,0,0,0,0,0,0,0,0,0,0,0,0,0,0,0,0,0,0,0,0,0,0,0,0,0,0,0,0,0,0,0,0,0,0,0,0,0,0,0,0,0,0,0,0,0],"id":5,"left_children":[1,3,5,7,9,11,13,15,17,19,21,23,25,27,29,31,33,35,37,39,41,43,45,47,49,51,53,55,57,59,61,63,-1,65,67,69,71,73,75,77,79,81,83,85,87,89,91,93,95,97,99,101,-1,103,105,107,109,111,113,115,117,-1,-1,-1,-1,-1,-1,-1,-1,-1,-1,-1,-1,-1,-1,-1,-1,-1,-1,-1,-1,-1,-1,-1,-1,-1,-1,-1,-1,-1,-1,-1,-1,-1,-1,-1,-1,-1,-1,-1,-1,-1,-1,-1,-1,-1,-1,-1,-1,-1,-1,-1,-1,-1,-1,-1,-1,-1,-1],"loss_changes":[1.5222676E11,2.1225554E10,7.139609E10,9.952797E9,8.623517E9,2.2745078E10,2.8647604E10,1.5345111E9,6.8221215E9,6.746158E9,7.1672013E9,1.4429295E10,4.143702E9,7.053054E9,1.8586149E10,4.7000266E8,1.0641654E9,1.5214797E9,4.1431306E9,2.1842432E9,1.6686566E9,6.1205084E9,2.5028618E9,1.9217536E9,1.0351987E10,4.2936125E9,3.9312343E9,3.979815E9,3.0019625E9,1.8267759E10,1.2813352E8,6.576646E6,0E0,1.070932E9,2.523021E8,2.6666189E8,4.9618253E8,3.0886666E9,1.674962E9,1.3246564E9,9.199081E8,2.2155948E7,1.6161434E9,1.5428844E9,4.5251917E9,2.350768E9,9.4927866E8,6.356905E8,9.924577E8,3.3031557E9,5.491136E9,1.3742188E9,0E0,1.3606306E7,1.0897244E9,4.790784E9,2.5948557E9,1.8482565E9,1.1595039E9,1.2623892E9,5.803426E9,0E0,0E0,0E0,0E0,0E0,0E0,0E0,0E0,0E0,0E0,0E0,0E0,0E0,0E0,0E0,0E0,0E0,0E0,0E0,0E0,0E0,0E0,0E0,0E0,0E0,0E0,0E0,0E0,0E0,0E0,0E0,0E0,0E0,0E0,0E0,0E0,0E0,0E0,0E0,0E0,0E0,0E0,0E0,0E0,0E0,0E0,0E0,0E0,0E0,0E0,0E0,0E0,0E0,0E0,0E0,0E0,0E0,0E0],"parents":[2147483647,0,0,1,1,2,2,3,3,4,4,5,5,6,6,7,7,8,8,9,9,10,10,11,11,12,12,13,13,14,14,15,15,16,16,17,17,18,18,19,19,20,20,21,21,22,22,23,23,24,24,25,25,26,26,27,27,28,28,29,29,30,30,31,31,33,33,34,34,35,35,36,36,37,37,38,38,39,39,40,40,41,41,42,42,43,43,44,44,45,45,46,46,47,47,48,48,49,49,50,50,51,51,53,53,54,54,55,55,56,56,57,57,58,58,59,59,60,60],"right_children":[2,4,6,8,10,12,14,16,18,20,22,24,26,28,30,32,34,36,38,40,42,44,46,48,50,52,54,56,58,60,62,64,-1,66,68,70,72,74,76,78,80,82,84,86,88,90,92,94,96,98,100,102,-1,104,106,108,110,112,114,116,118,-1,-1,-1,-1,-1,-1,-1,-1,-1,-1,-1,-1,-1,-1,-1,-1,-1,-1,-1,-1,-1,-1,-1,-1,-1,-1,-1,-1,-1,-1,-1,-1,-1,-1,-1,-1,-1,-1,-1,-1,-1,-1,-1,-1,-1,-1,-1,-1,-1,-1,-1,-1,-1,-1,-1,-1,-1,-1],"split_conditions":[6.5147924E-1,3.1172463E-1,1.3620547E0,-5.171998E-1,2.00001E0,1.617239E0,2.143103E0,2.00001E0,-9.4954884E-1,7.0738655E-1,2.00001E0,-6.12077E-1,1.1078101E0,1.4746623E0,2.00001E0,5.9663165E-1,2.1008923E0,-6.9035746E-2,3.7099576E-1,5.12923E-3,2.00001E0,-7.951515E-1,1.3512372E0,1.2275854E0,-1.8844797E-1,2.5747864E0,2.5609595E-1,2.00001E0,2.00001E0,1.2695055E0,-9.597462E-1,-8.790753E-1,-4.893303E3,1.5904337E0,5.8011854E-1,1.7080462E0,2.00001E0,2.00001E0,-1.2302309E0,-1.3075401E-1,2.00001E0,-1.6478213E0,1.8985446E-1,7.8692235E-2,2.0571747E0,-2.0413505E-1,1.4319081E0,2.00001E0,1.6377911E-1,-5.091633E-1,9.1245216E-1,-2.2691353E-3,1.4706593E4,7.295969E-1,-1.2746519E-1,1.1797856E-1,2.00001E0,6.267056E-1,1.8599724E0,4.1306615E-1,2.6821773E0,1.465425E3,-1.6629078E3,-1.9410939E2,5.550063E2,-8.8881875E3,5.376469E2,1.6624161E3,-3.1829836E3,-6.9369136E3,-9.1057855E2,-3.2859375E1,-3.9945815E3,-5.905464E3,-2.6389233E3,4.5069355E3,-5.7275244E2,-3.832843E2,-3.8306028E3,2.611623E3,-3.6918417E2,1.731797E1,-1.5961658E3,8.389362E3,3.230948E3,-5.6975767E3,1.962422E1,-7.378977E2,5.781702E3,-3.7683015E3,-8.094181E3,6.107004E3,-1.120412E3,1.1954274E3,-5.5981753E3,-3.7954487E3,-6.604598E2,-5.7071893E2,5.0601265E3,2.0656204E2,3.7825437E3,-5.996813E2,4.8506436E3,1.3499689E2,1.3213805E3,1.3727485E3,1.3074765E4,3.0866243E3,1.2577612E4,-3.35039E3,4.095478E3,6.883077E3,1.4430631E4,1.492359E4,2.0139703E3,7.169316E3,1.7320775E4,3.9509473E4,6.568247E3],"split_indices":[4,26,13,5,226,16,23,212,12,13,40,12,17,9,91,28,35,3,13,29,76,4,0,20,11,16,6,246,281,2,0,0,0,29,0,8,118,282,0,29,212,0,6,11,28,3,0,121,21,16,27,2,0,0,3,3,120,3,2,28,11,0,0,0,0,0,0,0,0,0,0,0,0,0,0,0,0,0,0,0,0,0,0,0,0,0,0,0,0,0,0,0,0,0,0,0,0,0,0,0,0,0,0,0,0,0,0,0,0,0,0,0,0,0,0,0,0,0,0],"split_type":[0,0,0,0,0,0,0,0,0,0,0,0,0,0,0,0,0,0,0,0,0,0,0,0,0,0,0,0,0,0,0,0,0,0,0,0,0,0,0,0,0,0,0,0,0,0,0,0,0,0,0,0,0,0,0,0,0,0,0,0,0,0,0,0,0,0,0,0,0,0,0,0,0,0,0,0,0,0,0,0,0,0,0,0,0,0,0,0,0,0,0,0,0,0,0,0,0,0,0,0,0,0,0,0,0,0,0,0,0,0,0,0,0,0,0,0,0,0,0],"sum_hessian":[1.46E3,9.12E2,5.48E2,4.27E2,4.85E2,4.44E2,1.04E2,4.9E1,3.78E2,1.45E2,3.4E2,3.93E2,5.1E1,8.4E1,2E1,5E0,4.4E1,6.3E1,3.15E2,1.17E2,2.8E1,2.72E2,6.8E1,6.7E1,3.26E2,2.7E1,2.4E1,3.9E1,4.5E1,1.7E1,3E0,3E0,2E0,4.2E1,2E0,5E1,1.3E1,2.87E2,2.8E1,7.4E1,4.3E1,3E0,2.5E1,3.2E1,2.4E2,5.9E1,9E0,1.6E1,5.1E1,1.24E2,2.02E2,2.4E1,3E0,3E0,2.1E1,2E1,1.9E1,2.7E1,1.8E1,1E1,7E0,1E0,2E0,1E0,2E0,4.1E1,1E0,1E0,1E0,4.9E1,1E0,4E0,9E0,2.9E1,2.58E2,7E0,2.1E1,6.3E1,1.1E1,3E1,1.3E1,1E0,2E0,1.2E1,1.3E1,2.7E1,5E0,2.31E2,9E0,4.2E1,1.7E1,1E0,8E0,1E0,1.5E1,1.1E1,4E1,1E1,1.14E2,1.51E2,5.1E1,5E0,1.9E1,2E0,1E0,1E0,2E1,1E1,1E1,5E0,1.4E1,2.3E1,4E0,1.7E1,1E0,4E0,6E0,6E0,1E0],"tree_param":{"num_deleted":"0","num_feature":"288","num_nodes":"119","size_leaf_vector":"1"}},{"base_weights":[4.185417E2,-2.7595427E3,1.74402E4,-6.866151E3,2.148453E3,1.4066626E4,4.869642E4,-9.644163E3,-1.3166504E3,-1.1001761E3,7.8548716E3,9.795925E3,3.0325705E4,1.5692357E4,6.305216E4,-1.4356652E4,-6.9151104E3,-4.0338813E3,1.2161141E4,-4.184108E3,3.8109688E3,5.2656333E3,1.8674324E4,-4.777128E3,1.1265483E4,2.4518068E4,2.0868043E4,1.0517697E4,3.3936484E3,3.210915E4,4.8053145E4,-2.0934703E4,-1.1086441E4,-1.4930452E4,-5.269516E3,-1.7908666E4,-2.900848E3,1.6773743E3,2.3716584E4,-4.8826875E3,1.50259E4,4.52162E2,9.780602E3,3.6321724E3,1.8494525E4,8.768477E3,2.9744008E4,6.5131562E3,-1.2202614E4,-1.0913438E3,1.2626387E4,1.5514697E4,3.1496447E4,2.312918E3,-3.4923386E3,5.2323293E4,-4.782961E2,-6.83503E3,-1.6593439E3,-4.31927E3,-1.8284066E3,-1.0391793E4,-3.996155E3,-1.8111045E3,1.7270525E3,-6.099581E3,-2.0302518E3,-2.1477554E3,1.3214792E2,-3.0972825E3,4.773485E3,2.5229849E3,9.807788E3,-8.625935E3,-1.3221082E3,1.0431969E3,5.488762E3,-1.7453682E3,5.976028E2,6.1734863E3,1.5029647E3,2.7176643E3,2.6474884E2,8.998532E2,6.07318E3,1.6391958E3,1.1724418E4,1.3714277E3,1.0342129E4,-1.5514719E3,3.666409E3,-3.2691254E2,-4.453388E3,1.9861093E3,-1.9141215E3,2.2011885E3,4.99574E3,9.0836487E2,6.7639053E3,1.9068751E3,1.0142475E4,-5.4358597E1,-1.5171938E3,2.3774954E3,1.6691717E4],"categories":[],"categories_nodes":[],"categories_segments":[],"categories_sizes":[],"default_left":[0,0,0,0,0,0,0,0,0,0,0,0,0,0,0,0,0,0,0,0,0,0,0,0,0,0,0,0,0,0,0,1,0,0,0,0,0,0,0,0,0,0,0,0,0,0,0,0,0,0,0,0,0,0,0,0,0,0,0,0,0,0,0,0,0,0,0,0,0,0,0,0,0,0,0,0,0,0,0,0,0,0,0,0,0,0,0,0,0,0,0,0,0,0,0,0,0,0,0,0,0,0,0,0,0],"id":6,"left_children":[1,3,5,7,9,11,13,15,17,19,21,23,25,27,29,31,33,35,37,39,41,43,45,47,49,51,-1,-1,53,-1,55,57,59,61,63,65,67,69,71,73,75,77,79,81,83,85,87,89,91,93,95,97,99,-1,101,103,-1,-1,-1,-1,-1,-1,-1,-1,-1,-1,-1,-1,-1,-1,-1,-1,-1,-1,-1,-1,-1,-1,-1,-1,-1,-1,-1,-1,-1,-1,-1,-1,-1,-1,-1,-1,-1,-1,-1,-1,-1,-1,-1,-1,-1,-1,-1,-1,-1],"loss_changes":[7.9082775E10,2.4845976E10,2.3567393E10,1.0331828E10,1.0427019E10,1.4215401E10,9.434112E9,5.6494244E9,8.289068E9,5.453229E9,5.616553E9,3.6302817E9,8.0924754E9,1.7864988E9,4.751319E9,3.2743055E9,3.680474E9,2.9035213E9,4.563711E9,3.039123E9,2.7826447E9,3.519898E9,4.0157204E9,1.4208511E9,2.5698796E9,1.9616707E9,0E0,0E0,2.0524774E8,0E0,2.8394455E9,1.3832622E9,1.7468938E9,1.06162586E9,2.0488806E9,2.4037632E8,2.4931507E9,3.7517978E9,2.1981317E9,2.3030876E9,2.3848755E8,8.8053274E8,2.4725417E9,2.2153377E9,4.2720563E8,1.9901723E9,1.9854868E9,5.300956E8,2.7742797E8,6.9484365E8,2.795137E9,1.5999877E9,1.00560486E9,0E0,1.46292E7,1.3256294E9,0E0,0E0,0E0,0E0,0E0,0E0,0E0,0E0,0E0,0E0,0E0,0E0,0E0,0E0,0E0,0E0,0E0,0E0,0E0,0E0,0E0,0E0,0E0,0E0,0E0,0E0,0E0,0E0,0E0,0E0,0E0,0E0,0E0,0E0,0E0,0E0,0E0,0E0,0E0,0E0,0E0,0E0,0E0,0E0,0E0,0E0,0E0,0E0,0E0],"parents":[2147483647,0,0,1,1,2,2,3,3,4,4,5,5,6,6,7,7,8,8,9,9,10,10,11,11,12,12,13,13,14,14,15,15,16,16,17,17,18,18,19,19,20,20,21,21,22,22,23,23,24,24,25,25,28,28,30,30,31,31,32,32,33,33,34,34,35,35,36,36,37,37,38,38,39,39,40,40,41,41,42,42,43,43,44,44,45,45,46,46,47,47,48,48,49,49,50,50,51,51,52,52,54,54,55,55],"right_children":[2,4,6,8,10,12,14,16,18,20,22,24,26,28,30,32,34,36,38,40,42,44,46,48,50,52,-1,-1,54,-1,56,58,60,62,64,66,68,70,72,74,76,78,80,82,84,86,88,90,92,94,96,98,100,-1,102,104,-1,-1,-1,-1,-1,-1,-1,-1,-1,-1,-1,-1,-1,-1,-1,-1,-1,-1,-1,-1,-1,-1,-1,-1,-1,-1,-1,-1,-1,-1,-1,-1,-1,-1,-1,-1,-1,-1,-1,-1,-1,-1,-1,-1,-1,-1,-1,-1,-1],"split_conditions":[1.3747946E0,2.00001E0,2.414878E0,6.004949E-1,2.4469104E-1,1.8277775E0,1.6503069E0,-8.0376786E-1,7.701047E-1,2.00001E0,9.1976696E-1,4.425864E-1,2.4593732E0,2.00001E0,2.00001E0,3.8174272E-1,-9.4954884E-1,2.00001E0,1.2806852E0,1.2296084E0,5.850361E-1,1.1172353E0,4.425864E-1,-6.144386E-1,-3.3801246E-1,2.00001E0,2.0868043E4,1.0517697E4,7.2445923E-1,3.210915E4,2.1852791E0,-4.380057E-1,4.193776E-1,2.00001E0,9.029023E-1,-6.602909E-2,-4.1105384E-1,4.315139E-2,-1.4661827E0,2.00001E0,-1.054653E0,-1.167834E0,-6.321724E-1,2.00001E0,2.00001E0,1.1786644E0,-4.0165182E-2,-1.3251379E0,-6.360783E-1,-5.606292E-1,2.00001E0,8.121216E-1,1.8782225E0,2.312918E3,-1.2563303E0,-7.4432945E-1,-4.782961E2,-6.83503E3,-1.6593439E3,-4.31927E3,-1.8284066E3,-1.0391793E4,-3.996155E3,-1.8111045E3,1.7270525E3,-6.099581E3,-2.0302518E3,-2.1477554E3,1.3214792E2,-3.0972825E3,4.773485E3,2.5229849E3,9.807788E3,-8.625935E3,-1.3221082E3,1.0431969E3,5.488762E3,-1.7453682E3,5.976028E2,6.1734863E3,1.5029647E3,2.7176643E3,2.6474884E2,8.998532E2,6.07318E3,1.6391958E3,1.1724418E4,1.3714277E3,1.0342129E4,-1.5514719E3,3.666409E3,-3.2691254E2,-4.453388E3,1.9861093E3,-1.9141215E3,2.2011885E3,4.99574E3,9.0836487E2,6.7639053E3,1.9068751E3,1.0142475E4,-5.4358597E1,-1.5171938E3,2.3774954E3,1.6691717E4],"split_indices":[4,248,16,24,16,9,26,6,16,193,9,7,12,136,56,5,12,71,5,25,12,6,7,36,13,281,0,0,2,0,9,25,14,37,14,3,2,2,6,285,0,16,11,196,69,2,29,0,1,28,247,28,9,0,0,12,0,0,0,0,0,0,0,0,0,0,0,0,0,0,0,0,0,0,0,0,0,0,0,0,0,0,0,0,0,0,0,0,0,0,0,0,0,0,0,0,0,0,0,0,0,0,0,0,0],"split_type":[0,0,0,0,0,0,0,0,0,0,0,0,0,0,0,0,0,0,0,0,0,0,0,0,0,0,0,0,0,0,0,0,0,0,0,0,0,0,0,0,0,0,0,0,0,0,0,0,0,0,0,0,0,0,0,0,0,0,0,0,0,0,0,0,0,0,0,0,0,0,0,0,0,0,0,0,0,0,0,0,0,0,0,0,0,0,0,0,0,0,0,0,0,0,0,0,0,0,0,0,0,0,0,0,0],"sum_hessian":[1.46E3,1.231E3,2.29E2,6.7E2,5.61E2,2.08E2,2.1E1,4.46E2,2.24E2,3.58E2,2.03E2,1.66E2,4.2E1,7E0,1.4E1,1.62E2,2.84E2,1.87E2,3.7E1,2.2E2,1.38E2,1.65E2,3.8E1,1.5E1,1.51E2,3.8E1,4E0,2E0,5E0,2E0,1.2E1,5.2E1,1.1E2,4.7E1,2.37E2,1.3E1,1.74E2,2E1,1.7E1,2.13E2,7E0,8.9E1,4.9E1,1.48E2,1.7E1,2.1E1,1.7E1,6E0,9E0,1.5E1,1.36E2,1.8E1,2E1,3E0,2E0,1.1E1,1E0,4.6E1,6E0,6.5E1,4.5E1,2E0,4.5E1,2.22E2,1.5E1,1E1,3E0,7.6E1,9.8E1,1.1E1,9E0,7E0,1E1,3E0,2.1E2,2E0,5E0,1.7E1,7.2E1,1.4E1,3.5E1,4.9E1,9.9E1,2E0,1.5E1,2E1,1E0,3E0,1.4E1,2E0,4E0,2E0,7E0,6E0,9E0,6E1,7.6E1,7E0,1.1E1,2E0,1.8E1,1E0,1E0,1E0,1E1],"tree_param":{"num_deleted":"0","num_feature":"288","num_nodes":"105","size_leaf_vector":"1"}},{"base_weights":[3.7514575E2,2.0054443E4,-1.0855333E3,1.7521639E4,2.3128357E4,3.8065405E3,-4.789484E3,2.6867889E4,1.1412145E4,1.2089247E3,1.1644483E4,-8.450295E3,-2.395872E3,2.9457643E4,-2.5094375E3,3.3951667E3,1.617518E4,-7.0237463E2,7.8379956E3,9.515479E3,2.0675451E4,-2.0577059E4,-7.530322E3,-2.8361792E3,2.713247E4,1.6399322E4,4.2319434E4,1.905047E2,-1.1307782E3,-4.719695E3,9.528617E3,1.127277E4,2.7183572E4,-1.2705457E3,1.1024541E4,4.1901084E3,1.6088467E4,2.574621E4,8.282192E3,2.5424078E4,6.219449E3,-2.2749617E4,4.1505207E1,-1.5150211E4,-6.1195996E3,-4.345611E3,4.689284E3,1.1038393E4,1.0687184E4,5.7542764E3,-5.050411E3,7.756638E3,1.7282842E4,2.2016666E1,-5.257714E3,4.2414194E3,-4.7880002E2,4.506362E3,5.071141E2,5.903891E2,9.770514E3,-1.668713E3,1.2205676E1,4.6188164E3,-5.016E2,6.979911E3,8.044352E2,3.1816042E3,8.952414E3,1.5866344E3,1.1088875E4,-1.0315165E2,2.9760652E3,2.9105588E3,8.62448E3,3.2177322E3,4.1115002E2,-7.442638E3,-3.6066511E3,7.229602E2,-7.0428284E2,2.800664E3,-4.781026E3,-2.8497327E3,-1.0306382E3,-1.6073998E3,8.241452E2,-6.013881E3,1.7837971E3,3.7445173E3,7.955344E2],"categories":[],"categories_nodes":[],"categories_segments":[],"categories_sizes":[],"default_left":[0,0,0,0,0,0,0,0,0,0,0,0,0,0,0,0,0,1,0,0,0,0,0,0,0,0,0,0,0,0,0,0,0,0,0,0,0,0,0,0,0,0,0,0,0,0,0,0,0,0,0,0,0,0,0,0,0,0,0,0,0,0,0,0,0,0,0,0,0,0,0,0,0,0,0,0,0,0,0,0,0,0,0,0,0,0,0,0,0,0,0],"id":7,"left_children":[1,3,5,7,-1,9,11,13,15,17,19,21,23,25,27,29,31,33,35,37,39,41,43,45,47,49,51,-1,-1,53,55,57,59,61,63,65,67,69,71,73,75,77,79,81,83,85,87,-1,89,-1,-1,-1,-1,-1,-1,-1,-1,-1,-1,-1,-1,-1,-1,-1,-1,-1,-1,-1,-1,-1,-1,-1,-1,-1,-1,-1,-1,-1,-1,-1,-1,-1,-1,-1,-1,-1,-1,-1,-1,-1,-1],"loss_changes":[4.2018415E10,1.3240779E10,2.467955E10,5.289263E9,0E0,1.1937223E10,6.770739E9,2.9649633E9,2.2743767E9,5.605707E9,2.6103992E9,3.258876E9,6.1876777E9,5.1843584E9,1.8239354E7,1.2395026E9,1.7443379E9,2.306043E9,2.9121695E9,2.1888215E9,1.6953231E9,9.416407E8,2.9816576E9,5.2910336E9,7.190492E8,2.0793344E9,2.789972E9,0E0,0E0,6.7646976E8,7.4046106E8,9.803397E8,1.4294984E9,1.851701E9,9.137919E8,1.9521807E9,1.9457874E9,1.6402304E9,1.6000625E9,7.663606E8,1.6010784E8,1.2144845E8,2.2632292E7,9.9617894E8,2.1716357E9,2.7936225E9,2.543849E9,0E0,2.458064E7,0E0,0E0,0E0,0E0,0E0,0E0,0E0,0E0,0E0,0E0,0E0,0E0,0E0,0E0,0E0,0E0,0E0,0E0,0E0,0E0,0E0,0E0,0E0,0E0,0E0,0E0,0E0,0E0,0E0,0E0,0E0,0E0,0E0,0E0,0E0,0E0,0E0,0E0,0E0,0E0,0E0,0E0],"parents":[2147483647,0,0,1,1,2,2,3,3,5,5,6,6,7,7,8,8,9,9,10,10,11,11,12,12,13,13,14,14,15,15,16,16,17,17,18,18,19,19,20,20,21,21,22,22,23,23,24,24,25,25,26,26,29,29,30,30,31,31,32,32,33,33,34,34,35,35,36,36,37,37,38,38,39,39,40,40,41,41,42,42,43,43,44,44,45,45,46,46,48,48],"right_children":[2,4,6,8,-1,10,12,14,16,18,20,22,24,26,28,30,32,34,36,38,40,42,44,46,48,50,52,-1,-1,54,56,58,60,62,64,66,68,70,72,74,76,78,80,82,84,86,88,-1,90,-1,-1,-1,-1,-1,-1,-1,-1,-1,-1,-1,-1,-1,-1,-1,-1,-1,-1,-1,-1,-1,-1,-1,-1,-1,-1,-1,-1,-1,-1,-1,-1,-1,-1,-1,-1,-1,-1,-1,-1,-1,-1],"split_conditions":[2.00001E0,2.8461676E0,2.00001E0,2.00001E0,2.3128357E4,7.2018015E-1,-4.9488705E-1,1.7237108E0,8.160666E-1,7.8533405E-1,1.2993257E0,-1.4161423E0,4.473724E0,2.00001E0,-6.360783E-1,7.897405E-1,2.1522164E0,1.2296084E0,5.184902E-1,2.00001E0,2.00001E0,4.4743082E-1,-4.5268568E-1,7.791566E-1,2.00001E0,3.1734436E0,2.0336773E-1,1.905047E2,-1.1307782E3,8.919936E-1,2.00001E0,9.956871E-1,3.0889145E-1,-3.9255247E-1,1.3747946E0,2.00001E0,1.2980903E0,-5.729521E-1,2.00001E0,2.00001E0,1.3747946E0,-5.606292E-1,9.4551015E-1,2.00001E0,2.00001E0,2.260179E-1,-1.9961146E0,1.1038393E4,4.519361E-1,5.7542764E3,-5.050411E3,7.756638E3,1.7282842E4,2.2016666E1,-5.257714E3,4.2414194E3,-4.7880002E2,4.506362E3,5.071141E2,5.903891E2,9.770514E3,-1.668713E3,1.2205676E1,4.6188164E3,-5.016E2,6.979911E3,8.044352E2,3.1816042E3,8.952414E3,1.5866344E3,1.1088875E4,-1.0315165E2,2.9760652E3,2.9105588E3,8.62448E3,3.2177322E3,4.1115002E2,-7.442638E3,-3.6066511E3,7.229602E2,-7.0428284E2,2.800664E3,-4.781026E3,-2.8497327E3,-1.0306382E3,-1.6073998E3,8.241452E2,-6.013881E3,1.7837971E3,3.7445173E3,7.955344E2],"split_indices":[224,14,226,279,0,9,9,2,13,16,16,5,10,193,1,19,24,25,13,51,212,32,3,14,191,11,3,0,0,36,120,28,27,3,4,70,8,3,139,139,4,28,0,39,216,3,6,0,2,0,0,0,0,0,0,0,0,0,0,0,0,0,0,0,0,0,0,0,0,0,0,0,0,0,0,0,0,0,0,0,0,0,0,0,0,0,0,0,0,0,0],"split_type":[0,0,0,0,0,0,0,0,0,0,0,0,0,0,0,0,0,0,0,0,0,0,0,0,0,0,0,0,0,0,0,0,0,0,0,0,0,0,0,0,0,0,0,0,0,0,0,0,0,0,0,0,0,0,0,0,0,0,0,0,0,0,0,0,0,0,0,0,0,0,0,0,0,0,0,0,0,0,0,0,0,0,0,0,0,0,0,0,0,0,0],"sum_hessian":[1.46E3,1E2,1.36E3,9.7E1,3E0,5.86E2,7.74E2,3.7E1,6E1,4.41E2,1.45E2,3.05E2,4.69E2,3.4E1,3E0,2.3E1,3.7E1,3.43E2,9.8E1,1.19E2,2.6E1,2E1,2.85E2,4.63E2,6E0,1.8E1,1.6E1,1E0,2E0,1E1,1.3E1,2.7E1,1E1,3.28E2,1.5E1,6.9E1,2.9E1,7E0,1.12E2,1.9E1,7E0,1.8E1,2E0,4.3E1,2.42E2,3.86E2,7.7E1,3E0,3E0,1.7E1,1E0,9E0,7E0,8E0,2E0,9E0,4E0,1.9E1,8E0,2E0,8E0,7.6E1,2.52E2,1.1E1,4E0,4E0,6.5E1,2.2E1,7E0,3E0,4E0,1.8E1,9.4E1,4E0,1.5E1,3E0,4E0,1.4E1,4E0,1E0,1E0,1E0,4.2E1,1.06E2,1.36E2,3.38E2,4.8E1,3E0,7.4E1,2E0,1E0],"tree_param":{"num_deleted":"0","num_feature":"288","num_nodes":"91","size_leaf_vector":"1"}},{"base_weights":[3.3693546E2,-7.765507E2,1.5025195E4,-3.7277007E3,2.2282942E3,4.2702906E4,1.1920915E4,-2.3293967E3,-8.708777E3,2.847844E2,7.8549624E3,7.20653E3,1.9415752E4,9.26211E3,3.3328664E4,-3.5779187E3,4.0815608E3,-2.3171172E4,-7.6213115E3,-2.585053E3,2.3239382E3,6.351114E3,1.8437531E4,-9.786817E2,1.2853795E4,4.662705E4,1.7243203E3,-4.109532E3,6.4702764E3,1.3568434E3,1.7251396E4,-4.368604E3,-2.7325738E4,-8.322585E3,9.544444E3,1.7582904E4,-3.2677654E3,1.4751006E3,8.56319E3,-1.1897953E4,7.5743047E3,1.4022114E4,1.0109258E4,1.7828766E3,-2.3140684E3,1.018194E4,2.3360682E4,5.0352066E4,3.6415408E3,2.3915251E3,-3.0154062E3,-5.535591E3,-1.1481692E3,-1.8753219E3,3.1053801E3,5.938908E3,6.105469E0,-3.3127502E2,5.592417E3,-1.7280422E3,-2.378297E2,-8.709902E3,-2.3062266E3,-1.8485739E3,-3.5408655E3,3.7866296E3,-8.765743E2,6.599764E3,-1.337243E3,-8.0652E2,-7.701889E3,2.283062E2,2.3617651E3,1.1803878E3,7.9546074E3,2.3593125E3,-5.3464746E3,5.4151113E3,1.945557E3,5.3561387E3,2.1002373E3,-2.30099E3,-5.231406E0,3.6757773E3,-1.463925E3,8.181877E3,7.5989685E2,5.949291E3,1.8196463E4,-2.3693439E2,-1.1199985E3],"categories":[],"categories_nodes":[],"categories_segments":[],"categories_sizes":[],"default_left":[0,0,0,0,0,0,0,0,0,0,0,0,0,0,0,0,0,0,0,0,0,0,0,0,0,0,0,0,0,0,0,0,0,0,0,0,0,0,0,0,0,0,0,0,0,0,1,0,0,0,0,0,0,0,0,0,0,0,0,0,0,0,0,0,0,0,0,0,0,0,0,0,0,0,0,0,0,0,0,0,0,0,0,0,0,0,0,0,0,0,0],"id":8,"left_children":[1,3,5,7,9,11,13,15,17,19,21,-1,-1,23,25,27,29,31,33,35,37,39,41,43,45,47,49,51,53,55,57,59,61,63,65,67,69,71,73,75,77,79,-1,-1,81,83,85,87,-1,-1,89,-1,-1,-1,-1,-1,-1,-1,-1,-1,-1,-1,-1,-1,-1,-1,-1,-1,-1,-1,-1,-1,-1,-1,-1,-1,-1,-1,-1,-1,-1,-1,-1,-1,-1,-1,-1,-1,-1,-1,-1],"loss_changes":[2.3906576E10,1.2059575E10,8.3406336E9,4.7577457E9,7.36828E9,2.5582223E9,5.0416947E9,4.312871E9,2.1825106E9,2.9437315E9,2.6361242E9,0E0,0E0,3.139024E9,4.1224673E9,2.43038E9,3.1343913E9,6.617897E8,1.7767777E9,2.9351603E9,1.5444252E9,3.5054003E9,9.4245325E8,2.2634171E8,1.5307336E9,2.8809626E8,1.424825E8,1.6623063E9,1.2002495E9,1.8232726E9,4.032978E8,1.0361284E7,4.5033984E7,9.4996275E8,2.6708352E8,7.794209E8,2.5660833E9,1.1817644E9,2.803919E9,1.3108027E9,1.5259284E9,3.5927168E8,0E0,0E0,2.458766E8,1.6815386E9,9.087135E8,6.838733E8,0E0,0E0,1.844962E6,0E0,0E0,0E0,0E0,0E0,0E0,0E0,0E0,0E0,0E0,0E0,0E0,0E0,0E0,0E0,0E0,0E0,0E0,0E0,0E0,0E0,0E0,0E0,0E0,0E0,0E0,0E0,0E0,0E0,0E0,0E0,0E0,0E0,0E0,0E0,0E0,0E0,0E0,0E0,0E0],"parents":[2147483647,0,0,1,1,2,2,3,3,4,4,5,5,6,6,7,7,8,8,9,9,10,10,13,13,14,14,15,15,16,16,17,17,18,18,19,19,20,20,21,21,22,22,23,23,24,24,25,25,26,26,27,27,28,28,29,29,30,30,31,31,32,32,33,33,34,34,35,35,36,36,37,37,38,38,39,39,40,40,41,41,44,44,45,45,46,46,47,47,50,50],"right_children":[2,4,6,8,10,12,14,16,18,20,22,-1,-1,24,26,28,30,32,34,36,38,40,42,44,46,48,50,52,54,56,58,60,62,64,66,68,70,72,74,76,78,80,-1,-1,82,84,86,88,-1,-1,90,-1,-1,-1,-1,-1,-1,-1,-1,-1,-1,-1,-1,-1,-1,-1,-1,-1,-1,-1,-1,-1,-1,-1,-1,-1,-1,-1,-1,-1,-1,-1,-1,-1,-1,-1,-1,-1,-1,-1,-1],"split_conditions":[1.4515179E0,3.9413288E-1,-5.982139E-1,2.00001E0,5.7593006E-1,6.336182E-1,2.414878E0,1.2806852E0,2.00001E0,-9.181866E-1,2.1521711E0,7.20653E3,1.9415752E4,4.9103993E-1,1.7237108E0,8.640314E-1,4.6742076E-1,-1.8305109E0,1.9185911E0,2.00001E0,1.150356E0,-1.8305109E0,4.4743082E-1,2.9676324E-1,2.3225603E0,7.556963E-1,2.268757E0,2.00001E0,-8.591104E-1,2.00001E0,-1.698028E0,-1.512579E0,3.8174272E-1,2.00001E0,4.281016E-1,1.4058087E0,6.637877E-1,3.0579466E-1,2.00001E0,2.00001E0,-8.1321883E-1,2.00001E0,1.0109258E4,1.7828766E3,2.00001E0,1.4058087E0,3.8353844E0,3.0579466E-1,3.6415408E3,2.3915251E3,-4.875843E-1,-5.535591E3,-1.1481692E3,-1.8753219E3,3.1053801E3,5.938908E3,6.105469E0,-3.3127502E2,5.592417E3,-1.7280422E3,-2.378297E2,-8.709902E3,-2.3062266E3,-1.8485739E3,-3.5408655E3,3.7866296E3,-8.765743E2,6.599764E3,-1.337243E3,-8.0652E2,-7.701889E3,2.283062E2,2.3617651E3,1.1803878E3,7.9546074E3,2.3593125E3,-5.3464746E3,5.4151113E3,1.945557E3,5.3561387E3,2.1002373E3,-2.30099E3,-5.231406E0,3.6757773E3,-1.463925E3,8.181877E3,7.5989685E2,5.949291E3,1.8196463E4,-2.3693439E2,-1.1199985E3],"split_indices":[12,7,11,40,16,2,16,5,37,9,16,0,0,7,2,3,16,6,32,191,6,6,32,23,12,0,2,285,35,136,6,0,5,245,1,0,3,3,145,162,25,116,0,0,191,0,8,3,0,0,0,0,0,0,0,0,0,0,0,0,0,0,0,0,0,0,0,0,0,0,0,0,0,0,0,0,0,0,0,0,0,0,0,0,0,0,0,0,0,0,0],"split_type":[0,0,0,0,0,0,0,0,0,0,0,0,0,0,0,0,0,0,0,0,0,0,0,0,0,0,0,0,0,0,0,0,0,0,0,0,0,0,0,0,0,0,0,0,0,0,0,0,0,0,0,0,0,0,0,0,0,0,0,0,0,0,0,0,0,0,0,0,0,0,0,0,0,0,0,0,0,0,0,0,0,0,0,0,0,0,0,0,0,0,0],"sum_hessian":[1.46E3,1.358E3,1.02E2,6.85E2,6.73E2,9E0,9.3E1,5.36E2,1.49E2,5.01E2,1.72E2,6E0,3E0,8.4E1,9E0,4.49E2,8.7E1,9E0,1.4E2,2.08E2,2.93E2,1.52E2,2E1,2.2E1,6.2E1,6E0,3E0,4.27E2,2.2E1,7.3E1,1.4E1,2E0,7E0,1.35E2,5E0,6E0,2.02E2,2.59E2,3.4E1,9E0,1.43E2,1.7E1,3E0,3E0,1.9E1,5.1E1,1.1E1,5E0,1E0,1E0,2E0,7E0,4.2E2,5E0,1.7E1,4E0,6.9E1,1E0,1.3E1,1E0,1E0,6E0,1E0,8.5E1,5E1,4E0,1E0,5E0,1E0,1.98E2,4E0,2.34E2,2.5E1,2.8E1,6E0,2E0,7E0,1.2E1,1.31E2,1E1,7E0,5E0,1.4E1,4.5E1,6E0,9E0,2E0,2E0,3E0,1E0,1E0],"tree_param":{"num_deleted":"0","num_feature":"288","num_nodes":"91","size_leaf_vector":"1"}},{"base_weights":[2.9525397E2,-1.2066785E3,6.6345E3,-3.1478193E3,1.6487906E3,4.476479E3,1.9105002E4,-8.953309E3,-2.303929E3,-4.0884639E3,2.757888E3,1.0655016E4,2.7944692E3,1.3766013E4,3.9407582E4,-9.570766E3,3.5812126E3,1.9690431E2,-3.9116562E3,-1.7221741E3,-9.036111E3,1.9761892E3,1.0193733E4,-3.231004E3,1.2937587E4,6.089457E3,5.4439435E2,1.6939352E4,1.3352461E3,5.382499E4,-2.5630938E3,-3.421328E2,-1.0631222E4,-5.347753E2,7.1870186E3,-1.6951951E4,-3.5079443E3,-5.4349546E3,1.6659111E3,-6.1663545E3,-1.7095947E4,1.3677204E4,1.2941184E3,7.533775E3,7.8728125E3,-6.7638594E3,6.9650938E3,7.840156E2,1.5616603E4,2.862362E3,1.4027087E4,1.1536432E4,-6.234596E2,5.8652812E3,1.9824072E4,-7.386156E2,3.5937617E3,3.0526501E3,1.8155938E4,-2.0139375E2,-9.519985E2,-1.3670383E3,1.4351664E3,-3.436127E3,-6.006979E2,-1.4021982E3,1.6689111E2,3.0531934E3,-4.8422095E3,-5.969732E3,-2.0458976E3,-1.385396E3,-1.3095715E2,-1.9657396E3,1.5950344E3,1.5913779E3,-6.251494E2,1.021079E3,-2.2256316E3,-1.4819813E3,-5.561749E3,9.264413E2,6.618074E3,-6.8930695E1,1.4100267E3,1.2402554E3,4.583812E3,-6.94E2,3.6547922E3,-1.5744064E3,2.89082E3,6.949665E3,2.292913E3,1.7224354E3,-4.5543997E2,-2.3550547E3,4.982197E3,-3.7283203E2,3.881589E3,3.016747E3,-3.7931738E2,4.2628735E3,-1.1836008E3,6.6592573E3,3.0572563E3,6.199805E1,-6.779578E2,1.2334266E3,3.061172E2],"categories":[],"categories_nodes":[],"categories_segments":[],"categories_sizes":[],"default_left":[0,0,0,1,0,0,0,0,0,0,0,0,0,0,0,0,0,0,0,1,0,0,0,0,0,0,0,0,0,0,0,0,0,0,0,0,0,0,0,0,0,0,0,0,0,0,0,0,0,0,0,0,0,0,0,0,0,0,0,0,0,0,0,0,0,0,0,0,0,0,0,0,0,0,0,0,0,0,0,0,0,0,0,0,0,0,0,0,0,0,0,0,0,0,0,0,0,0,0,0,0,0,0,0,0,0,0,0,0],"id":9,"left_children":[1,3,5,7,9,11,13,15,17,19,21,23,25,27,29,31,-1,33,35,37,39,41,43,45,47,49,51,53,55,57,59,61,63,65,67,69,71,73,75,77,79,81,83,85,-1,-1,87,89,91,93,95,97,99,101,103,105,107,-1,-1,-1,-1,-1,-1,-1,-1,-1,-1,-1,-1,-1,-1,-1,-1,-1,-1,-1,-1,-1,-1,-1,-1,-1,-1,-1,-1,-1,-1,-1,-1,-1,-1,-1,-1,-1,-1,-1,-1,-1,-1,-1,-1,-1,-1,-1,-1,-1,-1,-1,-1],"loss_changes":[1.3918363E10,6.5568594E9,7.449726E9,3.4284058E9,3.0592358E9,2.4643917E9,3.9017206E9,1.26227E9,2.4774956E9,8.976287E8,2.3165164E9,1.6582886E9,1.4053388E9,1.3185807E9,4.978824E9,8.477921E8,0E0,1.2415583E9,1.914731E9,6.883319E8,4.728247E8,2.8953357E9,1.4244982E9,1.7325532E9,1.4203786E9,1.9322417E9,1.4706213E9,7.462569E8,4.01252E7,1.1375288E9,1.332992E6,2.378436E8,5.306757E8,9.961674E8,1.7686725E9,1.927703E8,1.2424166E9,3.4723264E8,4.067333E8,2.649618E8,1.3680128E7,1.7072468E9,1.796929E9,8.321157E8,0E0,0E0,3.186463E8,5.311333E8,1.9898552E9,7.149792E8,1.3722378E9,2.1318848E8,7.245623E8,6.2910054E8,2.5393203E8,7.656998E6,1.133276E6,0E0,0E0,0E0,0E0,0E0,0E0,0E0,0E0,0E0,0E0,0E0,0E0,0E0,0E0,0E0,0E0,0E0,0E0,0E0,0E0,0E0,0E0,0E0,0E0,0E0,0E0,0E0,0E0,0E0,0E0,0E0,0E0,0E0,0E0,0E0,0E0,0E0,0E0,0E0,0E0,0E0,0E0,0E0,0E0,0E0,0E0,0E0,0E0,0E0,0E0,0E0,0E0],"parents":[2147483647,0,0,1,1,2,2,3,3,4,4,5,5,6,6,7,7,8,8,9,9,10,10,11,11,12,12,13,13,14,14,15,15,17,17,18,18,19,19,20,20,21,21,22,22,23,23,24,24,25,25,26,26,27,27,28,28,29,29,30,30,31,31,32,32,33,33,34,34,35,35,36,36,37,37,38,38,39,39,40,40,41,41,42,42,43,43,46,46,47,47,48,48,49,49,50,50,51,51,52,52,53,53,54,54,55,55,56,56],"right_children":[2,4,6,8,10,12,14,16,18,20,22,24,26,28,30,32,-1,34,36,38,40,42,44,46,48,50,52,54,56,58,60,62,64,66,68,70,72,74,76,78,80,82,84,86,-1,-1,88,90,92,94,96,98,100,102,104,106,108,-1,-1,-1,-1,-1,-1,-1,-1,-1,-1,-1,-1,-1,-1,-1,-1,-1,-1,-1,-1,-1,-1,-1,-1,-1,-1,-1,-1,-1,-1,-1,-1,-1,-1,-1,-1,-1,-1,-1,-1,-1,-1,-1,-1,-1,-1,-1,-1,-1,-1,-1,-1],"split_conditions":[7.9937637E-1,1.2275854E0,1.5791656E0,-2.3974524E0,-3.4604943E-1,2.00001E0,2.1852791E0,2.605522E0,2.00001E0,2.5089064E-1,1.492619E0,-4.8911005E-1,-1.4996167E-1,2.00001E0,1.1288179E0,2.00001E0,3.5812126E3,6.716843E-1,-1.4161423E0,2.0588202E-2,8.2878865E-2,2.00001E0,4.4743082E-1,-9.37926E-1,-6.144386E-1,1.3905185E0,-3.202128E-1,-5.606292E-1,-1.15024514E-1,-1.4461441E0,-4.875843E-1,-1.2896692E0,2.1796277E0,-8.198386E-1,8.282344E-1,2.00001E0,1.2806852E0,3.9488094E0,6.5147924E-1,2.00001E0,-9.37926E-1,-3.589048E-1,5.647072E-1,7.0921385E-1,7.8728125E3,-6.7638594E3,3.0709198E-1,7.027287E-2,3.0709198E-1,8.919936E-1,2.00001E0,-6.440907E-1,2.00001E0,5.8794695E-1,3.569467E0,3.098594E-1,7.034975E-1,3.0526501E3,1.8155938E4,-2.0139375E2,-9.519985E2,-1.3670383E3,1.4351664E3,-3.436127E3,-6.006979E2,-1.4021982E3,1.6689111E2,3.0531934E3,-4.8422095E3,-5.969732E3,-2.0458976E3,-1.385396E3,-1.3095715E2,-1.9657396E3,1.5950344E3,1.5913779E3,-6.251494E2,1.021079E3,-2.2256316E3,-1.4819813E3,-5.561749E3,9.264413E2,6.618074E3,-6.8930695E1,1.4100267E3,1.2402554E3,4.583812E3,-6.94E2,3.6547922E3,-1.5744064E3,2.89082E3,6.949665E3,2.292913E3,1.7224354E3,-4.5543997E2,-2.3550547E3,4.982197E3,-3.7283203E2,3.881589E3,3.016747E3,-3.7931738E2,4.2628735E3,-1.1836008E3,6.6592573E3,3.0572563E3,6.199805E1,-6.779578E2,1.2334266E3,3.061172E2],"split_indices":[12,20,16,25,3,279,9,19,212,35,27,35,11,212,3,194,0,12,5,25,16,70,32,9,36,13,2,28,10,0,0,16,5,2,27,261,5,18,4,46,9,9,28,9,0,0,29,3,29,36,198,29,47,7,8,1,0,0,0,0,0,0,0,0,0,0,0,0,0,0,0,0,0,0,0,0,0,0,0,0,0,0,0,0,0,0,0,0,0,0,0,0,0,0,0,0,0,0,0,0,0,0,0,0,0,0,0,0,0],"split_type":[0,0,0,0,0,0,0,0,0,0,0,0,0,0,0,0,0,0,0,0,0,0,0,0,0,0,0,0,0,0,0,0,0,0,0,0,0,0,0,0,0,0,0,0,0,0,0,0,0,0,0,0,0,0,0,0,0,0,0,0,0,0,0,0,0,0,0,0,0,0,0,0,0,0,0,0,0,0,0,0,0,0,0,0,0,0,0,0,0,0,0,0,0,0,0,0,0,0,0,0,0,0,0,0,0,0,0,0,0],"sum_hessian":[1.46E3,1.181E3,2.79E2,7.03E2,4.78E2,2.39E2,4E1,8.8E1,6.15E2,7.7E1,4.01E2,5E1,1.89E2,3.3E1,7E0,8.6E1,2E0,2.41E2,3.74E2,5.3E1,2.4E1,3.64E2,3.7E1,7E0,4.3E1,7.6E1,1.13E2,2.6E1,7E0,5E0,2E0,9E0,7.7E1,2.19E2,2.2E1,1E1,3.64E2,2.5E1,2.8E1,1.9E1,5E0,1.9E1,3.45E2,3.3E1,4E0,2E0,5E0,8E0,3.5E1,5.5E1,2.1E1,1E1,1.03E2,6E0,2E1,4E0,3E0,1E0,4E0,1E0,1E0,5E0,4E0,7E1,7E0,4.5E1,1.74E2,2E1,2E0,7E0,3E0,2.67E2,9.7E1,2.3E1,2E0,1.4E1,1.4E1,2E0,1.7E1,1E0,4E0,9E0,1E1,2.39E2,1.06E2,2.4E1,9E0,2E0,3E0,5E0,3E0,1.7E1,1.8E1,3.3E1,2.2E1,2E0,1.9E1,1E0,9E0,5E0,9.8E1,3E0,3E0,1.5E1,5E0,3E0,1E0,2E0,1E0],"tree_param":{"num_deleted":"0","num_feature":"288","num_nodes":"109","size_leaf_vector":"1"}},{"base_weights":[2.4265147E2,-5.386994E2,6.975066E3,2.5385557E3,-1.5859255E3,6.12767E3,3.6796797E4,7.473513E2,5.5515747E3,7.017206E3,-1.969859E3,1.9407783E4,4.8227856E3,1.3669244E4,1.5742125E3,-2.3745131E2,6.441452E3,-4.2553037E3,6.2645947E3,1.1790518E3,1.2271025E4,-2.2064705E3,1.096479E4,2.9723975E4,9.244666E3,-8.2780615E2,6.4831265E3,-1.0391312E3,6.610422E3,1.2019761E4,2.2856907E3,2.9458594E3,-8.346862E3,9.77249E3,3.6447202E3,8.772607E3,-2.443211E3,-3.4547617E3,1.4935874E4,-2.569554E3,4.1698345E3,2.8037148E3,1.2513327E4,2.6118845E3,9.655877E3,4.9341406E3,-2.069586E3,-2.0658362E3,4.881297E3,3.8760925E3,1.0363462E4,-1.4480935E3,1.4179322E0,9.69779E2,1.0111692E4,4.7530327E3,-1.6331485E2,-5.643348E2,2.475057E3,1.858336E3,-1.01998834E3,-8.394641E2,-3.12649E3,-2.9377595E3,3.2440188E3,3.6785908E3,7.8390576E2,4.123232E3,4.8238712E2,-2.633203E3,8.2644116E2,-2.4488203E2,-1.21865E3,2.1173533E3,4.969848E3,1.2050748E3,-8.9252325E2,2.0112157E3,-1.9912322E3,2.0211798E2,9.8674066E2,1.3036829E3,4.3037495E3,-1.7860313E2,-7.087656E2,-1.194386E3,4.7656738E2,1.6531876E3,2.6019846E2,1.6203601E3,-3.6063E3,4.0549397E3,7.468679E1],"categories":[],"categories_nodes":[],"categories_segments":[],"categories_sizes":[],"default_left":[0,0,0,0,0,0,0,0,0,0,0,0,0,0,0,1,0,0,0,0,0,0,0,0,0,0,0,0,0,0,0,0,0,0,0,0,0,0,0,0,0,0,0,0,0,0,0,0,0,0,0,0,0,0,0,0,0,0,0,0,0,0,0,0,0,0,0,0,0,0,0,0,0,0,0,0,0,0,0,0,0,0,0,0,0,0,0,0,0,0,0,0,0],"id":10,"left_children":[1,3,5,7,9,11,13,15,17,19,21,23,25,-1,-1,27,29,31,33,35,37,39,41,43,45,47,49,51,53,55,57,59,61,63,65,67,69,71,73,75,77,79,81,-1,-1,-1,83,85,87,89,91,-1,-1,-1,-1,-1,-1,-1,-1,-1,-1,-1,-1,-1,-1,-1,-1,-1,-1,-1,-1,-1,-1,-1,-1,-1,-1,-1,-1,-1,-1,-1,-1,-1,-1,-1,-1,-1,-1,-1,-1,-1,-1],"loss_changes":[7.689169E9,4.2256084E9,3.6156856E9,1.7930292E9,3.2441859E9,2.488423E9,8.6732646E8,1.1791183E9,8.93728E8,1.2737815E9,2.8918694E9,1.0881925E9,1.2906883E9,0E0,0E0,9.950335E8,6.911721E8,2.8976448E8,1.0304507E9,5.9905626E8,9.7355034E8,2.1429499E9,1.7975744E8,3.0286336E7,6.859632E8,2.3626128E8,1.0321444E9,6.405664E8,1.6299789E9,6.331617E8,4.877249E8,1.0352086E8,3.991107E7,1.1037921E9,5.725081E8,2.2723334E8,5.180535E8,3.094684E6,1.27104E8,2.341036E9,1.4138972E9,1.91978E6,1.4720205E8,0E0,0E0,0E0,3.21082E5,1.9531938E8,1.0377104E7,1.6408384E9,1.3360599E9,0E0,0E0,0E0,0E0,0E0,0E0,0E0,0E0,0E0,0E0,0E0,0E0,0E0,0E0,0E0,0E0,0E0,0E0,0E0,0E0,0E0,0E0,0E0,0E0,0E0,0E0,0E0,0E0,0E0,0E0,0E0,0E0,0E0,0E0,0E0,0E0,0E0,0E0,0E0,0E0,0E0,0E0],"parents":[2147483647,0,0,1,1,2,2,3,3,4,4,5,5,6,6,7,7,8,8,9,9,10,10,11,11,12,12,15,15,16,16,17,17,18,18,19,19,20,20,21,21,22,22,23,23,24,24,25,25,26,26,27,27,28,28,29,29,30,30,31,31,32,32,33,33,34,34,35,35,36,36,37,37,38,38,39,39,40,40,41,41,42,42,46,46,47,47,48,48,49,49,50,50],"right_children":[2,4,6,8,10,12,14,16,18,20,22,24,26,-1,-1,28,30,32,34,36,38,40,42,44,46,48,50,52,54,56,58,60,62,64,66,68,70,72,74,76,78,80,82,-1,-1,-1,84,86,88,90,92,-1,-1,-1,-1,-1,-1,-1,-1,-1,-1,-1,-1,-1,-1,-1,-1,-1,-1,-1,-1,-1,-1,-1,-1,-1,-1,-1,-1,-1,-1,-1,-1,-1,-1,-1,-1,-1,-1,-1,-1,-1,-1],"split_conditions":[1.2257767E0,2.00001E0,3.3205261E0,2.2755799E-1,2.00001E0,-9.4911844E-1,1.1288179E0,1.1898955E0,-1.5007156E0,-3.479385E-1,2.0665057E0,5.567261E-1,2.00001E0,1.3669244E4,1.5742125E3,1.1879181E0,1.3773366E0,-3.042479E-1,-2.835344E-1,2.00001E0,2.00001E0,2.2415287E0,1.6980828E0,-1.6828285E0,2.00001E0,2.00001E0,7.1109086E-1,1.8985446E-1,3.8174272E-1,2.00001E0,1.0841146E0,-1.7166288E0,6.20891E-1,2.00001E0,-2.3300892E-2,1.0665165E0,-4.1105384E-1,-7.295969E-1,2.00001E0,2.00001E0,6.5521784E-2,-9.597462E-1,2.00001E0,2.6118845E3,9.655877E3,4.9341406E3,-1.3109018E0,2.00001E0,1.4057671E0,2.7387748E0,6.20891E-1,-1.4480935E3,1.4179322E0,9.69779E2,1.0111692E4,4.7530327E3,-1.6331485E2,-5.643348E2,2.475057E3,1.858336E3,-1.01998834E3,-8.394641E2,-3.12649E3,-2.9377595E3,3.2440188E3,3.6785908E3,7.8390576E2,4.123232E3,4.8238712E2,-2.633203E3,8.2644116E2,-2.4488203E2,-1.21865E3,2.1173533E3,4.969848E3,1.2050748E3,-8.9252325E2,2.0112157E3,-1.9912322E3,2.0211798E2,9.8674066E2,1.3036829E3,4.3037495E3,-1.7860313E2,-7.087656E2,-1.194386E3,4.7656738E2,1.6531876E3,2.6019846E2,1.6203601E3,-3.6063E3,4.0549397E3,7.468679E1],"split_indices":[12,196,14,16,70,11,3,0,0,9,16,28,177,0,0,25,0,12,0,111,217,32,14,2,165,53,16,6,5,286,6,0,35,236,27,0,2,0,122,279,29,0,186,0,0,0,0,237,2,11,35,0,0,0,0,0,0,0,0,0,0,0,0,0,0,0,0,0,0,0,0,0,0,0,0,0,0,0,0,0,0,0,0,0,0,0,0,0,0,0,0,0,0],"split_type":[0,0,0,0,0,0,0,0,0,0,0,0,0,0,0,0,0,0,0,0,0,0,0,0,0,0,0,0,0,0,0,0,0,0,0,0,0,0,0,0,0,0,0,0,0,0,0,0,0,0,0,0,0,0,0,0,0,0,0,0,0,0,0,0,0,0,0,0,0,0,0,0,0,0,0,0,0,0,0,0,0,0,0,0,0,0,0,0,0,0,0,0,0],"sum_hessian":[1.46E3,1.309E3,1.51E2,3.32E2,9.77E2,1.48E2,3E0,2.09E2,1.23E2,4.1E1,9.36E2,1.2E1,1.36E2,2E0,1E0,1.79E2,3E1,8E0,1.15E2,2E1,2.1E1,9.2E2,1.6E1,5E0,7E0,3.1E1,1.05E2,1.61E2,1.8E1,1.2E1,1.8E1,3E0,5E0,4.8E1,6.7E1,6E0,1.4E1,3E0,1.8E1,8.71E2,4.9E1,3E0,1.3E1,1E0,4E0,4E0,3E0,2.6E1,5E0,6.4E1,4.1E1,3.4E1,1.27E2,1.7E1,1E0,9E0,3E0,1.1E1,7E0,2E0,1E0,2E0,3E0,2E0,4.6E1,6E0,6.1E1,3E0,3E0,6E0,8E0,1E0,2E0,4E0,1.4E1,5E1,8.21E2,4E1,9E0,1E0,2E0,3E0,1E1,1E0,2E0,1.7E1,9E0,4E0,1E0,5.9E1,5E0,3.1E1,1E1],"tree_param":{"num_deleted":"0","num_feature":"288","num_nodes":"93","size_leaf_vector":"1"}},{"base_weights":[2.1655031E2,-3.2952844E2,6.2126895E3,-8.653006E3,-6.0155376E1,5.11715E3,2.1184479E4,-1.0126023E4,7.872162E3,-6.5862495E3,3.6783453E2,1.3165074E4,3.7783108E3,1.2397111E4,8.362031E2,-1.1176424E4,-7.4801404E2,3.5001047E3,8.154618E2,-8.028867E3,-3.139751E2,-2.259384E3,1.1564478E3,4.6134814E3,2.350091E4,4.5944194E3,-9.77313E3,-3.004543E3,2.4298782E3,-1.4018672E3,-1.2392436E4,-1.5759235E3,1.6915215E3,-6.215835E3,-1.3657919E4,3.5507712E3,-2.8950938E3,-7.247899E3,-1.3561945E3,9.0576984E2,8.469666E3,-2.4355051E3,1.2149568E4,9.489823E3,2.8481555E3,3.3131196E3,1.242161E4,-3.7249478E2,-4.3140977E3,-2.5685782E2,-1.4174391E3,4.5383206E2,-1.1547656E3,-4.0490762E3,-4.6888126E2,9.139766E1,8.7781647E2,-1.5343783E3,-4.597299E3,-6.06845E2,-4.9194385E3,-1.5113846E3,1.1164595E3,-2.9005752E3,2.0191664E2,8.232809E2,-7.2675415E2,1.3708192E2,1.4955142E3,1.280785E3,3.9795547E3,1.3028313E3,-2.0731008E3,4.4549697E3,2.022375E2,-5.8991876E2,1.4108367E3,5.742787E2,8.655155E3,6.7728754E2,-8.449102E2],"categories":[],"categories_nodes":[],"categories_segments":[],"categories_sizes":[],"default_left":[0,0,0,0,0,0,0,0,0,0,0,0,0,0,0,0,0,0,0,0,0,0,1,0,0,0,0,0,0,0,0,0,0,0,0,0,0,0,0,0,0,0,0,0,0,0,0,0,0,0,0,0,0,0,0,0,0,0,0,0,0,0,0,0,0,0,0,0,0,0,0,0,0,0,0,0,0,0,0,0,0],"id":11,"left_children":[1,3,5,7,9,11,13,15,17,19,21,23,25,-1,27,29,31,-1,-1,33,35,37,39,41,43,45,47,49,-1,51,53,-1,55,57,59,-1,61,63,65,67,69,71,73,-1,-1,75,77,79,-1,-1,-1,-1,-1,-1,-1,-1,-1,-1,-1,-1,-1,-1,-1,-1,-1,-1,-1,-1,-1,-1,-1,-1,-1,-1,-1,-1,-1,-1,-1,-1,-1],"loss_changes":[4.785893E9,3.0039214E9,1.8926623E9,1.1020716E9,3.6306627E9,1.1893693E9,3.2438323E9,3.758162E8,4.652067E7,7.213586E8,2.530281E9,1.3057848E9,1.150847E9,0E0,1.6381978E8,3.9863654E8,6.3837016E7,0E0,0E0,5.7847194E8,5.3603053E8,1.2607424E9,1.7137617E9,5.608082E8,4.970048E8,9.115987E8,2.5450669E8,1.0737496E7,0E0,4.148875E7,3.49696E8,0E0,5.957064E6,4.331849E8,4.450688E8,0E0,2.1724746E8,8.3099546E8,1.05602496E9,1.6620123E9,5.678003E8,2.1199984E8,1.4492672E8,0E0,0E0,6.1820006E8,2.1888876E9,2.564133E7,0E0,0E0,0E0,0E0,0E0,0E0,0E0,0E0,0E0,0E0,0E0,0E0,0E0,0E0,0E0,0E0,0E0,0E0,0E0,0E0,0E0,0E0,0E0,0E0,0E0,0E0,0E0,0E0,0E0,0E0,0E0,0E0,0E0],"parents":[2147483647,0,0,1,1,2,2,3,3,4,4,5,5,6,6,7,7,8,8,9,9,10,10,11,11,12,12,14,14,15,15,16,16,19,19,20,20,21,21,22,22,23,23,24,24,25,25,26,26,27,27,29,29,30,30,32,32,33,33,34,34,36,36,37,37,38,38,39,39,40,40,41,41,42,42,45,45,46,46,47,47],"right_children":[2,4,6,8,10,12,14,16,18,20,22,24,26,-1,28,30,32,-1,-1,34,36,38,40,42,44,46,48,50,-1,52,54,-1,56,58,60,-1,62,64,66,68,70,72,74,-1,-1,76,78,80,-1,-1,-1,-1,-1,-1,-1,-1,-1,-1,-1,-1,-1,-1,-1,-1,-1,-1,-1,-1,-1,-1,-1,-1,-1,-1,-1,-1,-1,-1,-1,-1,-1],"split_conditions":[1.492619E0,2.00001E0,2.8369987E0,3.1824896E-1,-5.171998E-1,-1.1614233E0,5.033678E-1,8.733212E-1,-1.3915726E0,2.2151951E-1,-7.985216E-1,1.0724822E0,3.0927567E0,1.2397111E4,1.3512372E0,2.00001E0,-6.360783E-1,3.5001047E3,8.154618E2,2.00001E0,2.00001E0,-1.1680961E0,1.2296084E0,2.023488E0,1.5325671E-1,1.5874492E0,4.315139E-2,-4.875843E-1,2.4298782E3,-2.2896293E-1,3.8461104E-1,-1.5759235E3,-5.279197E-1,2.9468274E0,2.00001E0,3.5507712E3,2.00001E0,-4.9806622E-1,-6.144386E-1,2.1522164E0,2.00001E0,-5.1347107E-1,1.2768459E0,9.489823E3,2.8481555E3,1.6891272E0,1.951138E0,-1.4829205E-1,-4.3140977E3,-2.5685782E2,-1.4174391E3,4.5383206E2,-1.1547656E3,-4.0490762E3,-4.6888126E2,9.139766E1,8.7781647E2,-1.5343783E3,-4.597299E3,-6.06845E2,-4.9194385E3,-1.5113846E3,1.1164595E3,-2.9005752E3,2.0191664E2,8.232809E2,-7.2675415E2,1.3708192E2,1.4955142E3,1.280785E3,3.9795547E3,1.3028313E3,-2.0731008E3,4.4549697E3,2.022375E2,-5.8991876E2,1.4108367E3,5.742787E2,8.655155E3,6.7728754E2,-8.449102E2],"split_indices":[27,89,13,27,5,0,29,11,0,28,16,7,27,0,0,186,1,0,0,175,219,6,25,14,3,2,2,0,0,0,9,0,0,30,41,0,193,12,36,24,169,8,3,0,0,27,27,0,0,0,0,0,0,0,0,0,0,0,0,0,0,0,0,0,0,0,0,0,0,0,0,0,0,0,0,0,0,0,0,0,0],"split_type":[0,0,0,0,0,0,0,0,0,0,0,0,0,0,0,0,0,0,0,0,0,0,0,0,0,0,0,0,0,0,0,0,0,0,0,0,0,0,0,0,0,0,0,0,0,0,0,0,0,0,0,0,0,0,0,0,0,0,0,0,0,0,0,0,0,0,0,0,0,0,0,0,0,0,0,0,0,0,0,0,0],"sum_hessian":[1.46E3,1.339E3,1.21E2,4.1E1,1.298E3,1.14E2,7E0,3.8E1,3E0,7.9E1,1.219E3,1.5E1,9.9E1,3E0,4E0,3.4E1,4E0,1E0,2E0,6.4E1,1.5E1,2.81E2,9.38E2,9E0,6E0,9.4E1,5E0,3E0,1E0,4E0,3E1,1E0,3E0,5E1,1.4E1,2E0,1.3E1,4.2E1,2.39E2,9.08E2,3E1,5E0,4E0,3E0,3E0,8.2E1,1.2E1,2E0,3E0,2E0,1E0,2E0,2E0,2.7E1,3E0,2E0,1E0,4.6E1,4E0,3E0,1.1E1,1E1,3E0,3.2E1,1E1,4.9E1,1.9E2,8.19E2,8.9E1,1.7E1,1.3E1,2E0,3E0,3E0,1E0,1.7E1,6.5E1,8E0,4E0,1E0,1E0],"tree_param":{"num_deleted":"0","num_feature":"288","num_nodes":"81","size_leaf_vector":"1"}},{"base_weights":[1.7158984E2,-4.5963036E1,1.0208576E4,-5.141577E3,3.284119E2,5.1034897E3,1.7866338E4,-2.5519275E3,-9.730035E3,-8.705802E2,2.0128901E3,3.4420847E3,5.5005283E3,6.198664E3,2.1066822E4,-5.067117E3,2.4801213E3,2.4346008E3,-1.0493585E4,-1.4752139E3,2.108797E3,1.500915E3,7.924672E3,-8.4362274E2,5.4849976E3,8.343844E2,2.467622E3,1.1644013E4,7.8828813E3,-1.0886101E3,-1.171281E4,-1.7512422E3,4.65278E3,-1.2240697E4,-2.0060525E3,-2.1577527E3,8.498519E2,6.5881343E3,1.6344606E3,-5.748737E3,1.8692355E3,1.3315148E4,2.424013E3,-2.6770195E3,3.6020392E2,6.9115186E3,5.474453E2,3.45375E2,4.1938174E3,-1.3892196E3,1.206034E3,1.1190182E3,-4.669043E3,-1.6625836E3,1.6735399E3,2.0810274E2,-4.146171E3,3.2480316E2,-1.037424E3,-4.9536414E2,-2.2579084E3,-1.7950722E2,1.355731E3,4.8038605E1,2.17585E3,-2.0793865E3,6.57743E2,-1.7634792E2,8.5781934E2,-3.4159784E2,4.97711E3,2.7313804E3,-1.3375728E3,-2.675922E2,-1.2048235E3,2.3358083E3,-1.4385938E2,5.2203754E2,-1.2904688E2],"categories":[],"categories_nodes":[],"categories_segments":[],"categories_sizes":[],"default_left":[0,0,0,0,0,0,0,0,0,0,1,0,0,0,0,0,0,0,0,0,0,0,0,0,0,0,0,0,0,0,0,0,0,0,0,0,0,0,0,0,0,0,0,0,0,0,0,0,0,0,0,0,0,0,0,0,0,0,0,0,0,0,0,0,0,0,0,0,0,0,0,0,0,0,0,0,0,0,0],"id":12,"left_children":[1,3,5,7,9,11,13,15,17,19,21,23,-1,25,27,29,31,-1,33,35,37,39,41,43,45,-1,-1,47,-1,49,51,-1,53,55,57,59,61,-1,63,65,67,69,71,73,-1,75,77,-1,-1,-1,-1,-1,-1,-1,-1,-1,-1,-1,-1,-1,-1,-1,-1,-1,-1,-1,-1,-1,-1,-1,-1,-1,-1,-1,-1,-1,-1,-1,-1],"loss_changes":[3.1906724E9,2.7315645E9,1.1207194E9,1.1396544E9,2.6960005E9,3.7655008E8,3.1752013E8,8.2258675E8,5.6206336E8,1.4082276E9,1.667916E9,1.7097848E8,0E0,4.82744E6,1.3582771E8,1.1241664E9,4.2472896E8,0E0,4.7961933E8,1.0317631E9,1.2070666E9,1.3778853E9,1.2723753E9,2.9450364E7,8.778214E7,0E0,0E0,1.0642906E8,0E0,5.2529626E8,1.0094984E9,0E0,2.0078368E8,5.817572E8,3.5138416E7,1.3527155E9,7.891529E8,0E0,1.0756735E9,2.499689E8,1.1889312E9,1.0603566E9,1.0981274E9,5.978886E6,0E0,6.836902E7,5.4123875E6,0E0,0E0,0E0,0E0,0E0,0E0,0E0,0E0,0E0,0E0,0E0,0E0,0E0,0E0,0E0,0E0,0E0,0E0,0E0,0E0,0E0,0E0,0E0,0E0,0E0,0E0,0E0,0E0,0E0,0E0,0E0,0E0],"parents":[2147483647,0,0,1,1,2,2,3,3,4,4,5,5,6,6,7,7,8,8,9,9,10,10,11,11,13,13,14,14,15,15,16,16,18,18,19,19,20,20,21,21,22,22,23,23,24,24,27,27,29,29,30,30,32,32,33,33,34,34,35,35,36,36,38,38,39,39,40,40,41,41,42,42,43,43,45,45,46,46],"right_children":[2,4,6,8,10,12,14,16,18,20,22,24,-1,26,28,30,32,-1,34,36,38,40,42,44,46,-1,-1,48,-1,50,52,-1,54,56,58,60,62,-1,64,66,68,70,72,74,-1,76,78,-1,-1,-1,-1,-1,-1,-1,-1,-1,-1,-1,-1,-1,-1,-1,-1,-1,-1,-1,-1,-1,-1,-1,-1,-1,-1,-1,-1,-1,-1,-1,-1],"split_conditions":[2.414878E0,2.00001E0,9.525577E-1,8.919936E-1,1.1078101E0,3.9369628E0,1.3747946E0,6.0295644E-3,2.00001E0,6.694473E-1,1.1879181E0,1.6980828E0,5.5005283E3,-2.1709958E-1,2.00001E0,-3.8112345E-1,-5.140277E-1,2.4346008E3,2.00001E0,1.2806852E0,2.00001E0,-5.171998E-1,3.8114172E-1,3.8174272E-1,1.054653E0,8.343844E2,2.467622E3,3.0579466E-1,7.8828813E3,4.4487616E-1,2.00001E0,-1.7512422E3,2.00001E0,2.00001E0,-1.512579E0,2.00001E0,-3.042479E-1,6.5881343E3,2.00001E0,7.722819E-1,-4.518678E-1,-3.7400258E-1,-2.7744273E-2,1.0665165E0,3.6020392E2,1.1834768E0,-9.288859E-2,3.45375E2,4.1938174E3,-1.3892196E3,1.206034E3,1.1190182E3,-4.669043E3,-1.6625836E3,1.6735399E3,2.0810274E2,-4.146171E3,3.2480316E2,-1.037424E3,-4.9536414E2,-2.2579084E3,-1.7950722E2,1.355731E3,4.8038605E1,2.17585E3,-2.0793865E3,6.57743E2,-1.7634792E2,8.5781934E2,-3.4159784E2,4.97711E3,2.7313804E3,-1.3375728E3,-2.675922E2,-1.2048235E3,2.3358083E3,-1.4385938E2,5.2203754E2,-1.2904688E2],"split_indices":[16,282,11,36,17,14,4,28,39,29,25,14,0,0,145,7,12,0,120,5,70,5,28,5,0,0,0,3,0,0,224,0,87,242,0,53,12,0,286,14,13,16,3,0,0,6,3,0,0,0,0,0,0,0,0,0,0,0,0,0,0,0,0,0,0,0,0,0,0,0,0,0,0,0,0,0,0,0,0],"split_type":[0,0,0,0,0,0,0,0,0,0,0,0,0,0,0,0,0,0,0,0,0,0,0,0,0,0,0,0,0,0,0,0,0,0,0,0,0,0,0,0,0,0,0,0,0,0,0,0,0,0,0,0,0,0,0,0,0,0,0,0,0,0,0,0,0,0,0,0,0,0,0,0,0,0,0,0,0,0,0],"sum_hessian":[1.46E3,1.43E3,3E1,9.7E1,1.333E3,1.9E1,1.1E1,6.3E1,3.4E1,7.79E2,5.54E2,1.8E1,1E0,3E0,8E0,4.2E1,2.1E1,1E0,3.3E1,6.48E2,1.31E2,5.11E2,4.3E1,6E0,1.2E1,2E0,1E0,4E0,4E0,2.7E1,1.5E1,4E0,1.7E1,2.7E1,6E0,5.01E2,1.47E2,2E0,1.29E2,2.4E1,4.87E2,2.1E1,2.2E1,3E0,3E0,9E0,3E0,1E0,3E0,1.6E1,1.1E1,3E0,1.2E1,1E0,1.6E1,3E0,2.4E1,2E0,4E0,4.59E2,4.2E1,1.06E2,4.1E1,1.03E2,2.6E1,2.1E1,3E0,1.4E2,3.47E2,4E0,1.7E1,1.1E1,1.1E1,2E0,1E0,8E0,1E0,1E0,2E0],"tree_param":{"num_deleted":"0","num_feature":"288","num_nodes":"79","size_leaf_vector":"1"}},{"base_weights":[1.3895815E2,4.6336288E2,-4.2338516E3,2.4885548E2,6.878303E3,-2.5573853E3,-8.971451E3,-2.0576018E3,6.8785693E2,-2.8181028E3,1.0195836E4,-6.3219883E3,1.1762635E3,-1.4461203E4,-3.2330073E3,4.3758027E3,-2.4675347E3,-1.0554789E4,7.9986176E2,-8.847413E3,4.685776E3,-1.2572896E3,1.1774215E4,3.017286E3,-7.50947E3,3.7864631E3,-5.012224E3,-8.225917E3,-2.0364717E4,-6.732658E3,2.5553035E3,-3.1896328E3,9.502904E3,-2.231012E3,-4.0320781E3,-4.6010576E3,-1.7489329E3,6.6445215E3,6.011716E2,-1.01583203E3,-4.3401426E3,8.877344E1,2.7759563E3,1.3971184E4,-2.0048656E3,1.064942E3,1.3308047E2,-8.863525E3,2.1167563E3,-3.6580352E3,5.983055E3,5.0964062E2,-6.909472E3,-3.0970432E3,-4.902686E3,-6.7717046E3,-1.3989844E3,-3.2615806E3,-1.24685E3,3.9907703E3,-6.933047E2,-2.026536E3,8.456719E1,-1.170565E3,3.592586E3,-9.7097687E2,6.5211494E1,2.815914E2,-1.1560579E3,1.3605055E3,3.740743E3,1.5142242E1,8.59384E2,1.257672E2,-7.9815E2,-7.8266724E2,5.5728754E2,2.5207483E3,6.612251E3,1.8363126E2,-1.1860641E3,-3.329412E3,-9.854079E2,1.7695039E3,-7.111258E2,-1.4649084E3,5.537883E2,-8.762797E2,2.1058503E3,7.086938E2,-2.6860626E2,-2.7806018E2,-2.262432E3,-3.5447345E2,-1.6612706E3,-4.5127502E2,-3.25875E1,3.3579492E2,1.3286415E3],"categories":[],"categories_nodes":[],"categories_segments":[],"categories_sizes":[],"default_left":[0,0,1,0,0,0,0,0,0,0,0,0,0,0,0,0,0,0,0,0,0,0,0,0,0,0,0,0,0,0,0,0,0,1,0,0,0,0,0,0,0,0,0,0,0,0,0,0,0,0,0,0,0,0,0,0,0,0,0,0,0,0,0,0,0,0,0,0,0,0,0,0,0,0,0,0,0,0,0,0,0,0,0,0,0,0,0,0,0,0,0,0,0,0,0,0,0,0,0],"id":13,"left_children":[1,3,5,7,9,11,13,15,17,19,21,23,25,27,29,31,33,35,37,39,41,-1,43,45,47,49,51,53,55,57,59,61,63,65,-1,-1,67,69,71,73,-1,75,-1,77,79,-1,-1,81,83,85,87,89,91,-1,93,-1,-1,-1,95,97,-1,-1,-1,-1,-1,-1,-1,-1,-1,-1,-1,-1,-1,-1,-1,-1,-1,-1,-1,-1,-1,-1,-1,-1,-1,-1,-1,-1,-1,-1,-1,-1,-1,-1,-1,-1,-1,-1,-1],"loss_changes":[2.0744783E9,1.871095E9,7.792416E8,1.3359405E9,1.4441312E9,1.07567E9,7.7231526E8,5.672602E8,1.4036692E9,5.8437555E8,7.9870336E8,4.4408653E8,6.489529E8,3.1101286E8,3.0080288E8,5.3456464E8,4.8647885E8,4.3638925E8,1.2710868E9,2.933833E8,1.2515697E8,0E0,9.361764E8,5.278E6,4.619332E8,4.7975696E8,1.2923754E8,5.15264E6,1.0271667E8,1.9080986E8,5.1135372E7,7.617024E7,3.1186016E8,4.8326317E8,0E0,0E0,3.1898282E7,3.8578637E8,1.3248545E9,1.0556107E7,0E0,2.393341E7,0E0,9.8317414E8,2.7918186E7,0E0,0E0,3.3752576E8,9.882485E7,5.621037E7,2.2353037E8,1.2527084E7,2.7037376E7,0E0,5.269264E6,0E0,0E0,0E0,1.3014965E6,1.331736E6,0E0,0E0,0E0,0E0,0E0,0E0,0E0,0E0,0E0,0E0,0E0,0E0,0E0,0E0,0E0,0E0,0E0,0E0,0E0,0E0,0E0,0E0,0E0,0E0,0E0,0E0,0E0,0E0,0E0,0E0,0E0,0E0,0E0,0E0,0E0,0E0,0E0,0E0,0E0],"parents":[2147483647,0,0,1,1,2,2,3,3,4,4,5,5,6,6,7,7,8,8,9,9,10,10,11,11,12,12,13,13,14,14,15,15,16,16,17,17,18,18,19,19,20,20,22,22,23,23,24,24,25,25,26,26,27,27,28,28,29,29,30,30,31,31,32,32,33,33,36,36,37,37,38,38,39,39,41,41,43,43,44,44,47,47,48,48,49,49,50,50,51,51,52,52,54,54,58,58,59,59],"right_children":[2,4,6,8,10,12,14,16,18,20,22,24,26,28,30,32,34,36,38,40,42,-1,44,46,48,50,52,54,56,58,60,62,64,66,-1,-1,68,70,72,74,-1,76,-1,78,80,-1,-1,82,84,86,88,90,92,-1,94,-1,-1,-1,96,98,-1,-1,-1,-1,-1,-1,-1,-1,-1,-1,-1,-1,-1,-1,-1,-1,-1,-1,-1,-1,-1,-1,-1,-1,-1,-1,-1,-1,-1,-1,-1,-1,-1,-1,-1,-1,-1,-1,-1],"split_conditions":[2.00001E0,1.9258028E0,-3.3065295E-1,-4.286324E-1,2.00001E0,6.004949E-1,-5.606292E-1,2.00001E0,2.00001E0,2.3225603E0,2.00001E0,-1.2848023E0,4.6796945E-1,2.00001E0,-6.440907E-1,4.5638725E-1,8.282344E-1,1.8735944E-1,2.00001E0,1.9896488E0,1.9486737E0,-1.2572896E3,2.054071E0,-7.6998663E-3,3.3728826E-1,-2.1285437E-1,7.897405E-1,-1.2159948E0,7.699323E-1,2.00001E0,5.3978306E-1,-6.7502546E-1,-6.360783E-1,-4.7469148E-1,-4.0320781E3,-4.6010576E3,-4.1521776E-2,2.00001E0,6.8454546E-1,1.7676413E-1,-4.3401426E3,-8.807793E-2,2.7759563E3,1.5861943E0,-1.4829205E-1,1.064942E3,1.3308047E2,-5.606292E-1,2.5743502E-1,4.281016E-1,2.00001E0,-3.7844133E-1,-8.387399E-1,-3.0970432E3,-2.807935E-1,-6.7717046E3,-1.3989844E3,-3.2615806E3,3.098594E-1,-7.034975E-1,-6.933047E2,-2.026536E3,8.456719E1,-1.170565E3,3.592586E3,-9.7097687E2,6.5211494E1,2.815914E2,-1.1560579E3,1.3605055E3,3.740743E3,1.5142242E1,8.59384E2,1.257672E2,-7.9815E2,-7.8266724E2,5.5728754E2,2.5207483E3,6.612251E3,1.8363126E2,-1.1860641E3,-3.329412E3,-9.854079E2,1.7695039E3,-7.111258E2,-1.4649084E3,5.537883E2,-8.762797E2,2.1058503E3,7.086938E2,-2.6860626E2,-2.7806018E2,-2.262432E3,-3.5447345E2,-1.6612706E3,-4.5127502E2,-3.25875E1,3.3579492E2,1.3286415E3],"split_indices":[234,12,8,3,193,24,28,182,37,12,76,0,27,120,29,13,27,11,136,12,11,0,27,3,29,3,19,0,0,247,0,0,1,8,0,0,0,193,29,0,0,3,0,27,0,0,0,28,0,1,71,0,0,0,8,0,0,0,1,0,0,0,0,0,0,0,0,0,0,0,0,0,0,0,0,0,0,0,0,0,0,0,0,0,0,0,0,0,0,0,0,0,0,0,0,0,0,0,0],"split_type":[0,0,0,0,0,0,0,0,0,0,0,0,0,0,0,0,0,0,0,0,0,0,0,0,0,0,0,0,0,0,0,0,0,0,0,0,0,0,0,0,0,0,0,0,0,0,0,0,0,0,0,0,0,0,0,0,0,0,0,0,0,0,0,0,0,0,0,0,0,0,0,0,0,0,0,0,0,0,0,0,0,0,0,0,0,0,0,0,0,0,0,0,0,0,0,0,0,0,0],"sum_hessian":[1.46E3,1.36E3,1E2,1.317E3,4.3E1,7.5E1,2.5E1,2.1E2,1.107E3,1.1E1,3.2E1,3.7E1,3.8E1,1.2E1,1.3E1,1.2E1,1.98E2,1E1,1.097E3,6E0,5E0,3E0,2.9E1,4E0,3.3E1,2.7E1,1.1E1,7E0,5E0,8E0,5E0,5E0,7E0,1.95E2,3E0,6E0,4E0,3.5E1,1.062E3,3E0,3E0,3E0,2E0,2.5E1,4E0,3E0,1E0,2.9E1,4E0,6E0,2.1E1,3E0,8E0,3E0,4E0,4E0,1E0,4E0,4E0,4E0,1E0,2E0,3E0,1E0,6E0,1.38E2,5.7E1,2E0,2E0,2.7E1,8E0,8.55E2,2.07E2,2E0,1E0,1E0,2E0,1.6E1,9E0,2E0,2E0,2E1,9E0,2E0,2E0,5E0,1E0,2E0,1.9E1,1E0,2E0,1E0,7E0,1E0,3E0,3E0,1E0,1E0,3E0],"tree_param":{"num_deleted":"0","num_feature":"288","num_nodes":"99","size_leaf_vector":"1"}},{"base_weights":[8.396172E1,2.259667E1,5.3846846E3,3.0167778E3,-2.8294913E2,1.1080139E4,2.0667466E3,-4.913284E2,4.270346E3,1.4861688E4,-2.321833E3,-3.8277847E3,3.1912502E3,-1.2076743E3,6.724533E2,8.84337E3,2.8851365E3,1.5567981E4,1.0638704E3,4.3628906E1,-6.9992715E3,5.768704E3,5.524264E2,-2.7499146E3,2.2034587E2,3.150301E2,1.262363E4,2.5094902E3,1.0492585E4,1.6554365E3,8.519281E3,2.5923674E3,5.4875005E3,1.1007557E3,-6.103052E2,-1.1526808E3,-3.0057664E3,-1.0958425E3,2.1231018E3,-1.6388381E3,8.092714E2,-7.4107056E2,-3.5493162E3,-2.009077E2,6.322342E2,2.9710565E2,-8.0079694E2,7.825533E3,2.8744753E3,-1.0460391E2,1.0735321E3,6.366914E2,3.3560415E3,1.1344614E3,-1.6603102E2,3.387594E3,4.0237503E1],"categories":[],"categories_nodes":[],"categories_segments":[],"categories_sizes":[],"default_left":[0,0,0,0,0,0,0,0,0,0,0,0,0,1,0,0,0,0,0,0,0,0,0,0,0,0,0,0,0,0,0,0,0,0,0,0,0,0,0,0,0,0,0,0,0,0,0,0,0,0,0,0,0,0,0,0,0],"id":14,"left_children":[1,3,-1,5,7,9,11,13,15,17,-1,19,21,23,25,27,29,31,-1,33,35,37,39,41,43,45,47,49,51,53,55,-1,-1,-1,-1,-1,-1,-1,-1,-1,-1,-1,-1,-1,-1,-1,-1,-1,-1,-1,-1,-1,-1,-1,-1,-1,-1],"loss_changes":[1.601268E9,1.3338038E9,0E0,1.0112603E9,1.2573772E9,1.1113617E9,8.2088294E8,1.0562388E9,3.4189235E8,4.0696576E7,0E0,2.4586803E8,6.9736224E8,1.7272486E9,2.0592195E9,1.0946611E8,3.04599E8,4.946688E7,0E0,8.280274E7,6.637741E7,6.668124E8,6.8571923E8,9.282826E8,6.86685E8,9.498814E8,3.2336947E8,1.3468692E7,3.436621E7,1.852481E8,1.8448147E8,0E0,0E0,0E0,0E0,0E0,0E0,0E0,0E0,0E0,0E0,0E0,0E0,0E0,0E0,0E0,0E0,0E0,0E0,0E0,0E0,0E0,0E0,0E0,0E0,0E0,0E0],"parents":[2147483647,0,0,1,1,3,3,4,4,5,5,6,6,7,7,8,8,9,9,11,11,12,12,13,13,14,14,15,15,16,16,17,17,19,19,20,20,21,21,22,22,23,23,24,24,25,25,26,26,27,27,28,28,29,29,30,30],"right_children":[2,4,-1,6,8,10,12,14,16,18,-1,20,22,24,26,28,30,32,-1,34,36,38,40,42,44,46,48,50,52,54,56,-1,-1,-1,-1,-1,-1,-1,-1,-1,-1,-1,-1,-1,-1,-1,-1,-1,-1,-1,-1,-1,-1,-1,-1,-1,-1],"split_conditions":[1.3749809E1,2.00001E0,5.3846846E3,-8.9406073E-1,2.7438762E0,1.4058087E0,-4.648059E-1,3.8174272E-1,-9.37926E-1,1.6452097E0,-2.321833E3,-9.989242E-1,-6.253807E-1,6.876339E-1,7.529071E-1,2.00001E0,1.0921952E0,1.7743534E0,1.0638704E3,-1.0993018E0,-3.5517862E-1,2.00001E0,-1.3075401E-1,8.3021456E-1,5.088395E-1,2.00001E0,-2.4021497E-1,-1.5529144E0,-2.116517E-1,-3.270298E-1,5.8819765E-1,2.5923674E3,5.4875005E3,1.1007557E3,-6.103052E2,-1.1526808E3,-3.0057664E3,-1.0958425E3,2.1231018E3,-1.6388381E3,8.092714E2,-7.4107056E2,-3.5493162E3,-2.009077E2,6.322342E2,2.9710565E2,-8.0079694E2,7.825533E3,2.8744753E3,-1.0460391E2,1.0735321E3,6.366914E2,3.3560415E3,1.1344614E3,-1.6603102E2,3.387594E3,4.0237503E1],"split_indices":[33,191,0,9,32,0,13,5,9,36,0,11,11,25,6,214,29,11,0,16,14,117,29,7,28,91,3,0,3,29,2,0,0,0,0,0,0,0,0,0,0,0,0,0,0,0,0,0,0,0,0,0,0,0,0,0,0],"split_type":[0,0,0,0,0,0,0,0,0,0,0,0,0,0,0,0,0,0,0,0,0,0,0,0,0,0,0,0,0,0,0,0,0,0,0,0,0,0,0,0,0,0,0,0,0,0,0,0,0,0,0,0,0,0,0,0,0],"sum_hessian":[1.46E3,1.456E3,4E0,1.34E2,1.322E3,1.3E1,1.21E2,1.265E3,5.7E1,1.1E1,2E0,1.9E1,1.02E2,7.83E2,4.82E2,1.2E1,4.5E1,1E1,1E0,9E0,1E1,5.1E1,5.1E1,3.76E2,4.07E2,4.69E2,1.3E1,3E0,9E0,3.8E1,7E0,4E0,6E0,3E0,6E0,6E0,4E0,6E0,4.5E1,1.3E1,3.8E1,3.66E2,1E1,2.77E2,1.3E2,3.83E2,8.6E1,1E0,1.2E1,1E0,2E0,1E0,8E0,1.9E1,1.9E1,5E0,2E0],"tree_param":{"num_deleted":"0","num_feature":"288","num_nodes":"57","size_leaf_vector":"1"}},{"base_weights":[7.549575E1,-2.9952112E3,3.0331787E2,2.5635398E3,-3.919189E3,1.673473E2,6.5428164E3,9.011416E3,-4.2047783E3,2.898244E3,-4.352375E3,-1.9304103E3,5.0284302E2,3.8981516E3,1.6031005E4,7.330244E2,4.1495537E3,-6.188565E3,1.1643881E3,-6.942627E3,-1.660905E3,-1.1251157E4,-1.553019E3,8.984168E3,4.1304605E2,2.1112124E3,3.0798835E3,5.624922E3,3.6560156E2,2.2185989E3,-5.5855493E2,-2.5501326E3,-3.1296252E2,6.8565356E2,-1.6167891E2,-8.065167E3,3.201711E3,1.1204084E3,-5.233112E3,-2.128302E3,-4.3423916E3,-1.2342214E3,-7.4021953E3,9.9348047E2,1.9972434E4,5.0420513E3,2.5305035E2,3.6421511E3,7.870742E2,8.922247E2,1.0614493E2,-1.2245126E3,-3.1154275E3,-4.975172E2,1.4494003E3,1.3047021E3,-1.964268E2,3.628307E2,-1.9550038E3,-1.8635391E2,-7.713821E2,-5.4901404E2,4.4892493E2,-3.5355625E3,-4.6162314E2,7.5859155E2,-1.4628938E3,6.999606E3,9.801141E2,1.9543745E3,-1.1691617E3,1.2894966E3,2.4225994E1,9.698438E1,1.3632649E3,6.87495E2,-7.550098E1],"categories":[],"categories_nodes":[],"categories_segments":[],"categories_sizes":[],"default_left":[0,0,0,0,0,0,0,0,0,0,0,0,0,0,0,0,0,0,0,0,0,0,0,0,0,0,0,0,0,0,0,0,0,0,0,0,0,0,0,0,0,0,0,0,0,0,0,0,0,0,0,0,0,0,0,0,0,0,0,0,0,0,0,0,0,0,0,0,0,0,0,0,0,0,0,0,0],"id":15,"left_children":[1,3,5,7,9,11,13,15,17,-1,19,21,23,25,27,29,-1,31,33,35,37,39,41,43,45,47,-1,-1,-1,49,-1,-1,-1,-1,-1,51,53,55,57,59,-1,61,63,65,67,69,71,73,75,-1,-1,-1,-1,-1,-1,-1,-1,-1,-1,-1,-1,-1,-1,-1,-1,-1,-1,-1,-1,-1,-1,-1,-1,-1,-1,-1,-1],"loss_changes":[1.0229876E9,5.2879936E8,1.1535613E9,6.925101E8,5.538395E8,9.3912096E8,6.6520794E8,3.0910413E8,9.241614E7,0E0,5.810537E8,6.297593E8,8.721258E8,2.5143267E8,2.1877491E8,1.9550212E7,0E0,6.250485E7,6.96062E6,5.1548173E8,4.3308653E8,1.75045E8,3.227813E8,1.03380346E9,8.422914E8,3.767684E7,0E0,0E0,0E0,3.174156E6,0E0,0E0,0E0,0E0,0E0,3.1797197E8,4.7612908E7,1.4612986E8,1.6500096E8,4.05613E5,0E0,2.7932566E8,2.1316182E8,8.4418904E7,2.0438886E8,5.2559507E8,7.67734E8,2.5475488E7,1.9331172E7,0E0,0E0,0E0,0E0,0E0,0E0,0E0,0E0,0E0,0E0,0E0,0E0,0E0,0E0,0E0,0E0,0E0,0E0,0E0,0E0,0E0,0E0,0E0,0E0,0E0,0E0,0E0,0E0],"parents":[2147483647,0,0,1,1,2,2,3,3,4,4,5,5,6,6,7,7,8,8,10,10,11,11,12,12,13,13,14,14,15,15,17,17,18,18,19,19,20,20,21,21,22,22,23,23,24,24,25,25,29,29,35,35,36,36,37,37,38,38,39,39,41,41,42,42,43,43,44,44,45,45,46,46,47,47,48,48],"right_children":[2,4,6,8,10,12,14,16,18,-1,20,22,24,26,28,30,-1,32,34,36,38,40,42,44,46,48,-1,-1,-1,50,-1,-1,-1,-1,-1,52,54,56,58,60,-1,62,64,66,68,70,72,74,76,-1,-1,-1,-1,-1,-1,-1,-1,-1,-1,-1,-1,-1,-1,-1,-1,-1,-1,-1,-1,-1,-1,-1,-1,-1,-1,-1,-1],"split_conditions":[2.00001E0,-1.2301223E0,2.414878E0,-1.0432717E0,2.00001E0,-4.5268568E-1,2.0945387E0,-4.4882855E-1,-4.1105384E-1,2.898244E3,2.00001E0,-1.5184668E0,2.00001E0,1.5300411E0,1.0807525E0,5.338514E-2,4.1495537E3,7.699323E-1,-1.4864795E0,1.8109453E0,-3.5517862E-1,-1.135324E0,1.1343526E0,-1.0795662E-1,2.00001E0,-2.1709958E-1,3.0798835E3,5.624922E3,3.6560156E2,-8.909387E-1,-5.5855493E2,-2.5501326E3,-3.1296252E2,6.8565356E2,-1.6167891E2,-8.9822996E-1,-1.026181E0,2.00001E0,2.00001E0,-1.5529144E0,-4.3423916E3,1.3608917E0,-9.372058E-2,3.098594E-1,3.098594E-1,1.5276563E0,2.00001E0,2.00001E0,2.00001E0,8.922247E2,1.0614493E2,-1.2245126E3,-3.1154275E3,-4.975172E2,1.4494003E3,1.3047021E3,-1.964268E2,3.628307E2,-1.9550038E3,-1.8635391E2,-7.713821E2,-5.4901404E2,4.4892493E2,-3.5355625E3,-4.6162314E2,7.5859155E2,-1.4628938E3,6.999606E3,9.801141E2,1.9543745E3,-1.1691617E3,1.2894966E3,2.4225994E1,9.698438E1,1.3632649E3,6.87495E2,-7.550098E1],"split_indices":[71,25,16,27,284,3,12,9,2,0,177,4,86,29,0,0,0,0,0,32,14,0,14,0,38,0,0,0,0,0,0,0,0,0,0,27,0,145,141,0,0,35,0,1,1,23,70,76,182,0,0,0,0,0,0,0,0,0,0,0,0,0,0,0,0,0,0,0,0,0,0,0,0,0,0,0,0],"split_type":[0,0,0,0,0,0,0,0,0,0,0,0,0,0,0,0,0,0,0,0,0,0,0,0,0,0,0,0,0,0,0,0,0,0,0,0,0,0,0,0,0,0,0,0,0,0,0,0,0,0,0,0,0,0,0,0,0,0,0,0,0,0,0,0,0,0,0,0,0,0,0,0,0,0,0,0,0],"sum_hessian":[1.46E3,1E2,1.36E3,1.4E1,8.6E1,1.332E3,2.8E1,7E0,7E0,2E0,8.4E1,1.83E2,1.149E3,2.3E1,5E0,3E0,4E0,5E0,2E0,4.2E1,4.2E1,6E0,1.77E2,1.1E1,1.138E3,1.9E1,4E0,4E0,1E0,2E0,1E0,3E0,2E0,1E0,1E0,3.8E1,4E0,2.4E1,1.8E1,2E0,4E0,1.69E2,8E0,7E0,4E0,3.7E1,1.101E3,8E0,1.1E1,1E0,1E0,1.5E1,2.3E1,1E0,3E0,8E0,1.6E1,3E0,1.5E1,1E0,1E0,1.39E2,3E1,4E0,4E0,6E0,1E0,3E0,1E0,3.2E1,5E0,4.4E1,1.057E3,2E0,6E0,4E0,7E0],"tree_param":{"num_deleted":"0","num_feature":"288","num_nodes":"77","size_leaf_vector":"1"}},{"base_weights":[6.1335594E1,-4.7518204E1,5.4380996E3,2.8604055E3,-2.4683376E2,1.5977163E1,9.26454E3,-1.3189467E3,4.7094805E3,-4.051535E3,-1.0561947E2,5.948957E3,-2.3588125E3,1.1750243E4,-1.7515547E3,-4.8346167E3,2.284653E3,7.431504E3,2.6514775E3,-1.2120728E3,-7.9661787E3,1.0031832E2,-3.0383848E3,2.0412251E3,5.0753674E2,5.7384064E2,-3.6658164E3,1.5580109E4,5.6946475E3,2.9895E2,-8.999219E2,1.1162969E3,-7.921703E3,6.2966475E3,-1.0896372E3,9.47036E3,1.4054258E3,4.8947354E3,-1.5437311E3,-5.1578535E3,1.4857852E3,-4.133636E3,-2.9428738E3,-1.16404686E2,3.6889282E3,4.181147E2,-4.4051733E3,-2.0298048E3,-4.5249374E2,2.4768171E3,6.252045E3,2.4275776E3,-1.9903125E2,9.852247E2,-6.4385474E2,-1.827547E2,-2.9021057E3,2.124508E3,2.3795625E2,1.352625E3,-9.9998505E2,4.837594E2,3.0761604E3,1.0591388E3,-4.80668E2,1.0428723E3,2.9620398E3,1.4242556E3,-1.3604949E3,-2.2393357E3,-1.3071751E2,1.6323E3,-6.667461E2,3.947377E2,-1.5710043E3,-1.8217953E1,-9.555134E3,7.4062714E2,2.4918354E3,-1.6829197E3,6.6166895E2,-1.6292777E3,1.2850854E3,-4.8950937E2,2.632625E2,2.0171251E2,-2.9127658E2],"categories":[],"categories_nodes":[],"categories_segments":[],"categories_sizes":[],"default_left":[1,0,0,0,0,0,0,0,0,0,0,0,0,0,0,0,0,0,0,0,0,0,0,0,0,0,0,0,0,0,0,0,0,0,0,0,0,0,0,1,0,0,0,0,0,0,0,0,0,0,0,0,0,0,0,0,0,0,0,0,0,0,0,0,0,0,0,0,0,0,0,0,0,0,0,0,0,0,0,0,0,0,0,0,0,0,0],"id":16,"left_children":[1,3,5,7,9,11,13,15,17,19,21,23,25,27,29,31,33,35,37,39,41,43,45,-1,-1,-1,47,49,51,-1,-1,53,55,57,59,61,63,65,67,69,71,-1,73,75,77,79,81,-1,83,-1,-1,-1,85,-1,-1,-1,-1,-1,-1,-1,-1,-1,-1,-1,-1,-1,-1,-1,-1,-1,-1,-1,-1,-1,-1,-1,-1,-1,-1,-1,-1,-1,-1,-1,-1,-1,-1],"loss_changes":[8.5535424E8,8.3126483E8,6.015275E8,7.171817E8,7.205993E8,1.9719701E8,4.8608768E8,3.784484E8,3.3881907E8,5.2388768E8,7.824423E8,3.050592E6,6.284215E7,2.359666E8,1.6709561E7,2.8440778E8,2.0992557E8,3.1842048E8,3.651716E8,3.16373E8,5.434209E8,9.4226566E8,4.0340774E8,0E0,0E0,0E0,7.663395E7,1.3614093E8,1.0051205E8,0E0,0E0,4.9482364E7,1.2222099E8,2.4626176E7,1.28076136E8,1.0659853E8,5.6787572E7,1.4223507E8,2.8499187E8,1.2745219E8,2.7609878E8,0E0,1.24113064E8,2.0176253E9,3.682238E8,2.817342E8,5.669294E8,0E0,9.273799E6,0E0,0E0,0E0,2.6707148E6,0E0,0E0,0E0,0E0,0E0,0E0,0E0,0E0,0E0,0E0,0E0,0E0,0E0,0E0,0E0,0E0,0E0,0E0,0E0,0E0,0E0,0E0,0E0,0E0,0E0,0E0,0E0,0E0,0E0,0E0,0E0,0E0,0E0,0E0],"parents":[2147483647,0,0,1,1,2,2,3,3,4,4,5,5,6,6,7,7,8,8,9,9,10,10,11,11,12,12,13,13,14,14,15,15,16,16,17,17,18,18,19,19,20,20,21,21,22,22,26,26,27,27,28,28,31,31,32,32,33,33,34,34,35,35,36,36,37,37,38,38,39,39,40,40,42,42,43,43,44,44,45,45,46,46,48,48,52,52],"right_children":[2,4,6,8,10,12,14,16,18,20,22,24,26,28,30,32,34,36,38,40,42,44,46,-1,-1,-1,48,50,52,-1,-1,54,56,58,60,62,64,66,68,70,72,-1,74,76,78,80,82,-1,84,-1,-1,-1,86,-1,-1,-1,-1,-1,-1,-1,-1,-1,-1,-1,-1,-1,-1,-1,-1,-1,-1,-1,-1,-1,-1,-1,-1,-1,-1,-1,-1,-1,-1,-1,-1,-1,-1],"split_conditions":[3.081952E0,2.00001E0,-4.875843E-1,2.00001E0,-1.9961146E0,9.1220975E-1,1.5874492E0,-4.8049107E-1,1.387775E-1,2.835344E-1,2.00001E0,-1.0143176E0,2.00001E0,3.5238642E-1,8.191486E-1,-9.8534083E-1,8.919936E-1,1.0908414E0,1.1206031E0,-1.7206399E-1,7.9840446E-1,1.7204748E0,2.00001E0,2.0412251E3,5.0753674E2,5.7384064E2,9.1587603E-1,5.12923E-3,1.1834768E0,2.9895E2,-8.999219E2,6.004949E-1,2.00001E0,-1.6445467E-1,-5.749375E-1,-4.8911005E-1,2.00001E0,7.482728E-1,-4.8911005E-1,-6.047671E-1,7.8637147E-1,-4.133636E3,-8.788622E-1,1.6398617E0,9.956871E-1,-5.171998E-1,2.2266755E0,-2.0298048E3,-6.360783E-1,2.4768171E3,6.252045E3,2.4275776E3,1.7676413E-1,9.852247E2,-6.4385474E2,-1.827547E2,-2.9021057E3,2.124508E3,2.3795625E2,1.352625E3,-9.9998505E2,4.837594E2,3.0761604E3,1.0591388E3,-4.80668E2,1.0428723E3,2.9620398E3,1.4242556E3,-1.3604949E3,-2.2393357E3,-1.3071751E2,1.6323E3,-6.667461E2,3.947377E2,-1.5710043E3,-1.8217953E1,-9.555134E3,7.4062714E2,2.4918354E3,-1.6829197E3,6.6166895E2,-1.6292777E3,1.2850854E3,-4.8950937E2,2.632625E2,2.0171251E2,-2.9127658E2],"split_indices":[8,57,0,139,6,23,2,11,36,0,234,0,57,29,6,11,36,9,14,3,0,10,239,0,0,0,28,29,6,0,0,24,265,8,7,35,120,28,35,25,30,0,12,10,28,5,30,0,1,0,0,0,0,0,0,0,0,0,0,0,0,0,0,0,0,0,0,0,0,0,0,0,0,0,0,0,0,0,0,0,0,0,0,0,0,0,0],"split_type":[0,0,0,0,0,0,0,0,0,0,0,0,0,0,0,0,0,0,0,0,0,0,0,0,0,0,0,0,0,0,0,0,0,0,0,0,0,0,0,0,0,0,0,0,0,0,0,0,0,0,0,0,0,0,0,0,0,0,0,0,0,0,0,0,0,0,0,0,0,0,0,0,0,0,0,0,0,0,0,0,0,0,0,0,0,0,0],"sum_hessian":[1.46E3,1.432E3,2.8E1,9.1E1,1.341E3,1.2E1,1.6E1,2.8E1,6.3E1,4.7E1,1.294E3,3E0,9E0,1.3E1,3E0,1.4E1,1.4E1,2.6E1,3.7E1,2.8E1,1.9E1,1.21E3,8.4E1,2E0,1E0,2E0,7E0,7E0,6E0,1E0,2E0,5E0,9E0,6E0,8E0,1.9E1,7E0,2.4E1,1.3E1,1.1E1,1.7E1,8E0,1.1E1,1.142E3,6.8E1,2.4E1,6E1,3E0,4E0,4E0,3E0,4E0,2E0,3E0,2E0,2E0,7E0,5E0,1E0,2E0,6E0,2E0,1.7E1,4E0,3E0,2E1,4E0,4E0,9E0,7E0,4E0,8E0,9E0,4E0,7E0,1.141E3,1E0,5.5E1,1.3E1,5E0,1.9E1,5.4E1,6E0,2E0,2E0,1E0,1E0],"tree_param":{"num_deleted":"0","num_feature":"288","num_nodes":"87","size_leaf_vector":"1"}},{"base_weights":[4.642009E1,-2.488402E3,2.3649762E2,-1.8161141E3,-9.233588E3,-1.5476481E3,5.0822473E2,-1.7831955E2,-4.838149E3,-1.5584599E4,-1.0358594E3,1.6417452E3,-2.4706301E3,4.578448E3,3.76254E2,-1.0613134E3,5.9145527E3,4.292758E3,-5.8943315E3,-5.515019E3,-6.5841095E2,2.911875E2,-9.5160706E2,7.581991E3,4.0678906E2,-1.0163792E4,-1.9893073E3,7.503916E3,-3.0184688E3,-1.4513293E3,6.876229E2,1.4741149E3,-4.162792E3,-3.856354E2,8.078888E3,-7.6366174E2,2.226211E3,-7.0399175E3,-1.3866797E2,2.2663594E2,-1.15385414E2,2.834168E3,5.837805E2,1.7387761E3,-3.0970562E3,-8.121864E3,-3.880654E3,-1.5510022E3,-9.657228E3,5.711607E3,1.2825063E4,1.8180246E2,-6.895155E3,3.412614E3,-1.9893142E3,4.9073462E2,3.542527E3,2.3870586E3,-2.3580109E1,-2.4988203E3,-3.8954605E2,-3.4146094E2,1.67925E2,2.7227502E3,4.6412344E2,2.766123E2,-2.4502651E3,3.210873E2,-5.113172E2,-8.139375E1,2.9470314E1,-1.9321525E3,6.970704E2,-1.3028994E3,3.773422E2,-2.2673025E3,1.0623798E3,-5.192105E2,3.1636677E3,5.0565158E2,-4.359427E3,1.9364309E3,-3.440039E2,4.2246885E3,9.80836E2,9.064008E2,-4.6748343E2,1.3404141E2,-2.6527039E3,2.1689023E3,5.311406E0,-7.762868E2,7.7258325E2,-1.0590843E1,4.9018246E2,6.750249E2,3.0502422E3],"categories":[],"categories_nodes":[],"categories_segments":[],"categories_sizes":[],"default_left":[0,0,0,0,0,0,0,0,0,0,0,0,0,0,0,0,0,0,0,0,0,0,0,0,0,0,0,0,0,0,0,0,0,0,0,0,0,0,0,0,0,0,0,0,0,0,0,0,0,0,0,0,0,0,1,0,0,0,0,0,0,0,0,0,0,0,0,0,0,0,0,0,0,0,0,0,0,0,0,0,0,0,0,0,0,0,0,0,0,0,0,0,0,0,0,0,0],"id":17,"left_children":[1,3,5,7,9,11,13,15,17,19,21,23,25,27,29,31,33,35,37,-1,-1,39,-1,41,43,45,47,49,51,53,55,57,59,61,63,-1,-1,65,67,-1,69,-1,-1,71,73,-1,75,77,79,81,83,85,87,89,91,93,95,-1,-1,-1,-1,-1,-1,-1,-1,-1,-1,-1,-1,-1,-1,-1,-1,-1,-1,-1,-1,-1,-1,-1,-1,-1,-1,-1,-1,-1,-1,-1,-1,-1,-1,-1,-1,-1,-1,-1,-1],"loss_changes":[7.045169E8,4.4577088E8,6.601156E8,4.6438765E8,4.524313E8,5.3393162E8,6.326519E8,3.3983526E8,3.4355187E8,1.4703194E8,1.5097603E7,2.976894E8,4.9818624E8,8.449582E8,6.525632E8,4.3863312E8,1.1220125E8,1.0444895E8,1.9683187E8,0E0,0E0,8.421996E5,0E0,5.520432E7,1.6873277E8,7.448766E8,4.320198E8,1.8425114E8,1.3772446E8,4.4378227E8,5.485549E8,3.126671E8,2.8754538E8,2.771509E6,2.5030176E7,0E0,0E0,2.319849E8,1.3181561E7,0E0,1.2657954E5,0E0,0E0,1.3932755E8,5.972172E7,0E0,2.1779763E8,2.9431674E8,4.1149952E8,1.1953165E8,2.6040256E7,3.9295204E7,7.543179E7,2.2016773E8,4.1905E8,5.515136E8,5.1655187E8,0E0,0E0,0E0,0E0,0E0,0E0,0E0,0E0,0E0,0E0,0E0,0E0,0E0,0E0,0E0,0E0,0E0,0E0,0E0,0E0,0E0,0E0,0E0,0E0,0E0,0E0,0E0,0E0,0E0,0E0,0E0,0E0,0E0,0E0,0E0,0E0,0E0,0E0,0E0,0E0],"parents":[2147483647,0,0,1,1,2,2,3,3,4,4,5,5,6,6,7,7,8,8,9,9,10,10,11,11,12,12,13,13,14,14,15,15,16,16,17,17,18,18,21,21,23,23,24,24,25,25,26,26,27,27,28,28,29,29,30,30,31,31,32,32,33,33,34,34,37,37,38,38,40,40,43,43,44,44,46,46,47,47,48,48,49,49,50,50,51,51,52,52,53,53,54,54,55,55,56,56],"right_children":[2,4,6,8,10,12,14,16,18,20,22,24,26,28,30,32,34,36,38,-1,-1,40,-1,42,44,46,48,50,52,54,56,58,60,62,64,-1,-1,66,68,-1,70,-1,-1,72,74,-1,76,78,80,82,84,86,88,90,92,94,96,-1,-1,-1,-1,-1,-1,-1,-1,-1,-1,-1,-1,-1,-1,-1,-1,-1,-1,-1,-1,-1,-1,-1,-1,-1,-1,-1,-1,-1,-1,-1,-1,-1,-1,-1,-1,-1,-1,-1,-1],"split_conditions":[2.00001E0,5.3600466E-1,-1.0364807E0,8.919936E-1,1.1078101E0,2.00001E0,2.00001E0,9.1957146E-1,-5.95903E-1,8.640314E-1,2.9777044E-1,-1.3501939E0,2.00001E0,2.00001E0,-1.2048333E0,-7.1836114E-2,2.00001E0,-1.5956225E0,2.00001E0,-5.515019E3,-6.5841095E2,-1.4603802E0,-9.5160706E2,-8.4747046E-2,8.102678E-1,-6.2045395E-1,-5.243212E-1,-1.4463282E-1,-1.1467416E0,2.00001E0,2.143103E0,2.00001E0,-3.4073135E-1,-1.3773366E0,1.0807525E0,-7.6366174E2,2.226211E3,2.00001E0,1.3457917E-1,2.2663594E2,-1.2563303E0,2.834168E3,5.837805E2,-6.8570083E-1,-6.502836E-1,-8.121864E3,-1.0823224E-1,8.640314E-1,2.00001E0,2.00001E0,7.3374964E-2,-5.4760975E-1,-8.185721E-2,4.315139E-2,-6.27925E-2,3.8174272E-1,2.096939E0,2.3870586E3,-2.3580109E1,-2.4988203E3,-3.8954605E2,-3.4146094E2,1.67925E2,2.7227502E3,4.6412344E2,2.766123E2,-2.4502651E3,3.210873E2,-5.113172E2,-8.139375E1,2.9470314E1,-1.9321525E3,6.970704E2,-1.3028994E3,3.773422E2,-2.2673025E3,1.0623798E3,-5.192105E2,3.1636677E3,5.0565158E2,-4.359427E3,1.9364309E3,-3.440039E2,4.2246885E3,9.80836E2,9.064008E2,-4.6748343E2,1.3404141E2,-2.6527039E3,2.1689023E3,5.311406E0,-7.762868E2,7.7258325E2,-1.0590843E1,4.9018246E2,6.750249E2,3.0502422E3],"split_indices":[282,3,16,36,17,194,67,13,3,3,0,7,266,60,7,4,154,0,120,0,0,0,0,9,0,0,13,12,25,70,23,194,12,0,0,0,0,242,9,0,0,0,0,9,11,0,6,3,83,267,1,13,0,2,25,5,13,0,0,0,0,0,0,0,0,0,0,0,0,0,0,0,0,0,0,0,0,0,0,0,0,0,0,0,0,0,0,0,0,0,0,0,0,0,0,0,0],"split_type":[0,0,0,0,0,0,0,0,0,0,0,0,0,0,0,0,0,0,0,0,0,0,0,0,0,0,0,0,0,0,0,0,0,0,0,0,0,0,0,0,0,0,0,0,0,0,0,0,0,0,0,0,0,0,0,0,0,0,0,0,0,0,0,0,0,0,0,0,0,0,0,0,0,0,0,0,0,0,0,0,0,0,0,0,0,0,0,0,0,0,0,0,0,0,0,0,0],"sum_hessian":[1.46E3,1.01E2,1.359E3,9.3E1,8E0,1.79E2,1.18E3,6.1E1,3.2E1,4E0,4E0,4E1,1.39E2,3.6E1,1.144E3,5.4E1,7E0,3E0,2.9E1,3E0,1E0,3E0,1E0,6E0,3.4E1,7E0,1.32E2,2.6E1,1E1,1.66E2,9.78E2,3E1,2.4E1,2E0,5E0,1E0,2E0,2.4E1,5E0,1E0,2E0,4E0,2E0,2.5E1,9E0,1E0,6E0,1.26E2,6E0,2.1E1,5E0,6E0,4E0,1.6E1,1.5E2,9.16E2,6.2E1,5E0,2.5E1,9E0,1.5E1,1E0,1E0,4E0,1E0,3E0,2.1E1,3E0,2E0,1E0,1E0,1E0,2.4E1,7E0,2E0,4E0,2E0,1.25E2,1E0,2E0,4E0,1.9E1,2E0,4E0,1E0,2E0,4E0,1E0,3E0,7E0,9E0,1.33E2,1.7E1,6.28E2,2.88E2,5.3E1,9E0],"tree_param":{"num_deleted":"0","num_feature":"288","num_nodes":"97","size_leaf_vector":"1"}},{"base_weights":[3.006516E1,-2.4389578E2,1.4388809E3,-8.772976E2,6.875434E2,5.4356157E3,1.2207521E3,-6.878258E2,-5.973868E3,4.1809708E2,5.747188E3,-5.9118823E2,2.5117761E3,-5.214503E2,-4.408347E3,-1.0996915E4,-3.2803125E3,7.245536E3,2.242388E2,1.0014228E4,-1.6547937E3,4.803015E2,-9.20677E3,4.579812E3,1.8634612E2,3.869022E3,-6.545113E2,3.254155E3,-5.8854272E3,-3.5916516E3,-1.0546168E3,3.2099153E3,2.809968E3,6.756608E2,-2.6844973E3,1.4714325E4,1.8691986E3,3.6536938E3,-5.8027344E3,-2.7874229E3,1.7297294E3,-4.7772637E3,-5.8279097E3,8.603387E3,2.7894573E3,-2.1858904E3,5.0301777E3,1.7388951E3,-4.7821567E2,-4.7970645E2,-1.2640508E1,-2.1292937E3,3.330919E2,2.9075296E2,-2.3173774E3,3.1711017E2,1.2066294E3,1.7009434E3,9.8000206E1,-1.273728E3,2.4193254E2,1.6993219E3,5.335098E3,1.7896125E3,-1.6742485E3,-1.8454219E2,1.4624062E3,5.925469E1,-2.1126863E3,-3.025568E2,-2.4757559E3,-4.4606357E2,9.271955E2,-1.9667211E3,2.8947812E2,-2.571508E2,3.4308975E3,-1.2424797E2,1.8797792E3,-1.2781196E3,8.135934E2,2.8690762E3,-4.0988156E2],"categories":[],"categories_nodes":[],"categories_segments":[],"categories_sizes":[],"default_left":[1,0,0,0,1,0,0,0,0,0,0,0,0,0,0,0,0,0,0,0,0,0,0,0,0,0,0,0,0,0,0,0,0,0,0,0,0,0,0,0,0,0,0,0,0,0,0,0,0,0,0,0,0,0,0,0,0,0,0,0,0,0,0,0,0,0,0,0,0,0,0,0,0,0,0,0,0,0,0,0,0,0,0],"id":18,"left_children":[1,3,5,7,9,-1,11,13,15,17,19,21,23,25,27,-1,29,31,33,35,37,39,41,43,45,47,49,-1,51,-1,53,55,-1,57,59,61,63,65,67,69,71,73,-1,75,77,79,81,-1,-1,-1,-1,-1,-1,-1,-1,-1,-1,-1,-1,-1,-1,-1,-1,-1,-1,-1,-1,-1,-1,-1,-1,-1,-1,-1,-1,-1,-1,-1,-1,-1,-1,-1,-1],"loss_changes":[5.6423917E8,7.227329E8,8.4380966E8,6.998545E8,6.737952E8,0E0,5.5354995E8,4.334798E8,2.0285272E9,6.230935E8,8.061852E8,9.183413E8,6.627986E8,3.9686762E8,7.398494E8,0E0,4.7100973E8,8.120947E7,6.058249E8,5.850148E8,2.413943E8,3.681894E8,4.0514035E8,5.0186586E8,7.693825E8,2.1981875E8,3.7936016E8,0E0,2.453305E8,0E0,2.909581E8,6.2397E6,0E0,6.9357536E8,3.4134083E8,1.770386E8,2.4690811E8,2.9059712E7,4.601675E7,2.347237E8,2.891364E8,9.823677E7,0E0,5.9942835E8,5.8173414E8,4.6878413E8,6.510164E8,0E0,0E0,0E0,0E0,0E0,0E0,0E0,0E0,0E0,0E0,0E0,0E0,0E0,0E0,0E0,0E0,0E0,0E0,0E0,0E0,0E0,0E0,0E0,0E0,0E0,0E0,0E0,0E0,0E0,0E0,0E0,0E0,0E0,0E0,0E0,0E0],"parents":[2147483647,0,0,1,1,2,2,3,3,4,4,6,6,7,7,8,8,9,9,10,10,11,11,12,12,13,13,14,14,16,16,17,17,18,18,19,19,20,20,21,21,22,22,23,23,24,24,25,25,26,26,28,28,30,30,31,31,33,33,34,34,35,35,36,36,37,37,38,38,39,39,40,40,41,41,43,43,44,44,45,45,46,46],"right_children":[2,4,6,8,10,-1,12,14,16,18,20,22,24,26,28,-1,30,32,34,36,38,40,42,44,46,48,50,-1,52,-1,54,56,-1,58,60,62,64,66,68,70,72,74,-1,76,78,80,82,-1,-1,-1,-1,-1,-1,-1,-1,-1,-1,-1,-1,-1,-1,-1,-1,-1,-1,-1,-1,-1,-1,-1,-1,-1,-1,-1,-1,-1,-1,-1,-1,-1,-1,-1,-1],"split_conditions":[7.939555E-1,1.1078101E0,-1.6053356E0,8.1668365E-1,1.1879181E0,5.4356157E3,-3.7766475E-2,1.6900437E0,8.3422977E-1,2.00001E0,2.1709958E-1,1.150356E0,1.9615175E-1,2.00001E0,2.00001E0,-1.0996915E4,-4.725604E-1,1.2806852E0,2.00001E0,2.00001E0,-2.2937176E-1,2.00001E0,1.1898955E0,3.4748936E-1,1.5420287E0,1.017873E0,-2.813517E-1,3.254155E3,4.2706332E-1,-3.5916516E3,1.3470227E-1,-6.360783E-1,2.809968E3,-1.1050513E0,5.033678E-1,-2.5103897E-1,3.0931172E-1,5.9435457E-1,6.3469E-1,9.1220975E-1,2.00001E0,2.09811E0,-5.8279097E3,1.3577713E-1,1.4642887E0,1.5791656E0,1.8599724E0,1.7388951E3,-4.7821567E2,-4.7970645E2,-1.2640508E1,-2.1292937E3,3.330919E2,2.9075296E2,-2.3173774E3,3.1711017E2,1.2066294E3,1.7009434E3,9.8000206E1,-1.273728E3,2.4193254E2,1.6993219E3,5.335098E3,1.7896125E3,-1.6742485E3,-1.8454219E2,1.4624062E3,5.925469E1,-2.1126863E3,-3.025568E2,-2.4757559E3,-4.4606357E2,9.271955E2,-1.9667211E3,2.8947812E2,-2.571508E2,3.4308975E3,-1.2424797E2,1.8797792E3,-1.2781196E3,8.135934E2,2.8690762E3,-4.0988156E2],"split_indices":[8,17,25,9,25,0,3,28,9,200,0,6,3,47,83,0,6,5,91,279,2,139,0,16,2,6,1,0,3,0,8,1,0,25,29,3,28,0,0,23,122,4,0,27,8,16,2,0,0,0,0,0,0,0,0,0,0,0,0,0,0,0,0,0,0,0,0,0,0,0,0,0,0,0,0,0,0,0,0,0,0,0,0],"split_type":[0,0,0,0,0,0,0,0,0,0,0,0,0,0,0,0,0,0,0,0,0,0,0,0,0,0,0,0,0,0,0,0,0,0,0,0,0,0,0,0,0,0,0,0,0,0,0,0,0,0,0,0,0,0,0,0,0,0,0,0,0,0,0,0,0,0,0,0,0,0,0,0,0,0,0,0,0,0,0,0,0,0,0],"sum_hessian":[1.46E3,1.223E3,2.37E2,7.28E2,4.95E2,2E0,2.35E2,7.03E2,2.5E1,4.71E2,2.4E1,9.8E1,1.37E2,6.74E2,2.9E1,1E0,2.4E1,1.2E1,4.59E2,1.5E1,9E0,8.8E1,1E1,7.2E1,6.5E1,1.9E1,6.55E2,2E0,2.7E1,4E0,2E1,5E0,7E0,3.98E2,6.1E1,9E0,6E0,4E0,5E0,2.4E1,6.4E1,8E0,2E0,2.1E1,5.1E1,4.4E1,2.1E1,1.4E1,5E0,2.57E2,3.98E2,2.3E1,4E0,1.6E1,4E0,2E0,3E0,2.5E1,3.73E2,4.2E1,1.9E1,3E0,6E0,4E0,2E0,1E0,3E0,1E0,4E0,1.9E1,5E0,1.9E1,4.5E1,6E0,2E0,5E0,1.6E1,2.7E1,2.4E1,